1889 128
</s> 0.003127 0.003453 -0.002992 -0.002561 0.001068 0.002360 0.000735 0.000165 -0.002815 0.001733 -0.003403 0.000976 -0.000587 -0.000748 -0.002590 -0.001470 0.002015 0.002364 0.002320 0.001248 0.001207 -0.002971 -0.003200 0.003883 0.002970 0.002414 -0.000472 0.003137 -0.000387 0.000574 -0.000117 -0.002331 0.001025 -0.001045 -0.002989 0.003714 0.003421 -0.000856 -0.000177 0.000398 -0.002842 -0.003131 0.003558 0.000049 -0.002017 -0.002377 -0.002403 0.001326 0.000157 0.001040 -0.003292 -0.002975 -0.000102 0.000893 0.001992 -0.002477 0.003187 0.000724 0.000875 -0.000475 0.002333 -0.001787 -0.001639 0.001686 -0.000588 0.000805 0.001410 -0.003194 -0.001549 0.002276 0.003306 0.003072 -0.002380 -0.001647 -0.000710 0.001564 -0.002960 0.002342 0.002178 -0.001249 -0.001212 -0.001749 0.003304 0.003056 -0.000922 0.003293 0.003766 0.001418 0.003893 -0.002431 -0.001197 -0.001646 -0.002271 0.002199 0.001234 0.000332 -0.001714 0.001191 0.002390 0.000151 0.001781 -0.003869 0.003371 0.000375 -0.001431 -0.001628 -0.000584 -0.002293 -0.003414 -0.002216 0.003341 -0.001383 -0.002093 0.001810 -0.001331 0.003716 -0.001254 -0.003585 0.002122 -0.000058 -0.002726 0.000762 0.001127 -0.000376 0.001425 -0.003092 0.000688 0.001419 
82 0.162990 -0.187854 0.274745 -0.118729 0.017396 -0.381362 -0.303026 -0.448210 -0.020307 0.030890 -0.020366 -0.289105 -0.065713 -0.009501 0.044652 0.220500 0.184655 0.205865 0.289036 0.174670 -0.187560 0.277729 0.063883 -0.092984 -0.339236 0.222013 -0.238216 -0.115451 0.143293 0.166346 -0.380469 -0.144364 0.248310 -0.285913 -0.074398 0.164453 0.193162 -0.063071 -0.064030 0.168969 0.285152 0.062923 -0.019604 -0.119805 0.074211 0.064451 -0.003380 -0.006346 -0.150597 -0.343958 -0.083111 -0.025731 0.057651 0.045371 -0.007584 -0.172829 0.137698 0.354095 0.148317 -0.037277 -0.099156 -0.131949 -0.193507 -0.008838 -0.103180 0.035430 0.197271 0.080072 -0.046296 0.038184 -0.018588 -0.097706 -0.033960 -0.020450 0.571101 -0.096522 -0.120285 -0.222326 0.114322 -0.410794 0.347573 -0.069382 -0.272533 -0.095656 0.217275 0.214752 -0.022828 0.147358 0.164388 0.080854 -0.211017 -0.026322 0.044705 0.044169 0.370536 0.043107 -0.119580 -0.000201 0.010163 -0.091058 -0.329933 0.197514 -0.121954 0.203588 0.034326 -0.114068 0.113078 0.034953 0.010952 -0.213185 0.159356 0.095340 0.066322 0.207468 0.091895 0.133076 0.101626 -0.010818 -0.163705 0.302262 0.028643 0.168691 -0.107202 0.019909 0.172820 -0.004127 -0.117361 -0.469149 
147 0.164066 -0.135773 0.212376 0.034779 -0.009869 0.012005 -0.376733 -0.258350 0.118709 -0.145052 -0.075555 -0.405577 0.133280 0.131684 0.013928 0.173920 -0.087537 -0.178173 0.343256 -0.202191 0.183183 0.062117 -0.068890 0.124395 -0.036811 0.151668 -0.196606 0.022308 0.293266 0.057955 0.126658 0.281723 -0.230947 0.004094 -0.069727 0.053059 0.421578 0.048290 -0.255992 0.084574 0.420983 -0.006651 -0.104657 -0.332778 0.024916 0.134083 -0.095723 -0.351210 0.192657 -0.139389 -0.091346 -0.096543 -0.109430 0.355767 0.101805 -0.028051 0.068761 0.247865 -0.059464 0.310186 -0.028332 0.042868 0.225519 0.214791 -0.054100 -0.018505 0.113025 -0.202418 0.061103 -0.089565 0.123451 0.022849 0.411175 -0.107729 0.337293 -0.298707 -0.242161 0.092399 0.006212 -0.121634 0.499045 0.097205 -0.130384 -0.031302 -0.054216 0.263414 -0.207694 0.475401 0.267831 0.183823 0.149918 -0.149000 0.287591 -0.163309 0.309373 0.120848 0.254516 -0.043403 -0.173041 0.318289 0.125561 0.464981 0.084081 -0.026144 -0.161561 -0.133939 0.178670 -0.070490 -0.141515 -0.066309 0.034510 -0.018398 0.050206 0.189657 0.270103 -0.008924 -0.115929 0.203111 -0.175587 0.138846 0.098766 0.239027 -0.306894 -0.029851 0.125583 0.193178 0.236914 -0.164494 
279 0.253583 0.200492 -0.201307 -0.286095 0.039484 -0.095394 -0.233318 -0.054347 -0.410779 0.626833 -0.061534 -0.074783 0.077199 -0.181677 0.059777 -0.299856 0.128454 0.030169 0.144375 0.093480 0.377710 0.087204 -0.437028 0.065977 -0.347531 0.348487 -0.222678 -0.240334 -0.257549 -0.032665 -0.273322 -0.029779 0.112213 0.428797 0.275363 0.038094 0.160493 0.013111 0.178385 -0.014063 0.275110 0.070711 -0.134691 -0.008317 -0.038864 -0.056088 -0.189914 0.133416 -0.065389 0.262513 -0.219731 -0.099326 0.028947 0.376645 0.057792 0.050611 -0.474775 -0.050804 0.230667 -0.058312 0.444768 -0.598621 0.306072 0.088354 0.158371 0.012038 -0.213259 0.046218 0.095899 0.164583 -0.175008 -0.128011 0.333048 0.459238 0.085086 -0.193039 0.066563 -0.110502 0.421294 -0.138223 -0.219135 -0.211746 -0.667250 -0.341773 0.046930 0.029705 0.293174 -0.077359 0.475170 0.328547 0.099389 0.331687 0.047163 -0.216518 0.166144 -0.071952 -0.208454 0.208416 -0.286144 0.075046 -0.069321 0.393796 0.388803 0.044708 0.034744 0.125522 0.057790 -0.216804 -0.416023 0.055650 -0.052956 -0.672074 0.045373 0.297155 -0.234285 -0.177055 0.088479 0.210839 -0.299609 0.142218 0.118216 -0.114571 -0.340046 0.298070 -0.296511 -0.011759 -0.153427 0.108898 
486 -0.066655 0.054998 0.008711 -0.299006 0.588845 0.256747 -0.198840 -0.064922 -0.138963 -0.059677 -0.247920 -0.186887 0.143478 0.181454 -0.005806 0.012361 -0.155683 0.007449 0.203815 0.469130 0.269767 0.105066 -0.060388 -0.288479 0.117546 0.209890 0.031300 -0.768129 0.030137 -0.431802 0.079210 -0.057109 0.294069 -0.048059 -0.215964 -0.054275 0.025016 -0.119949 -0.421949 0.208130 0.481520 0.047101 0.201157 -0.428327 0.338599 -0.111514 -0.467189 0.517230 0.018293 -0.212663 0.203887 0.608145 -0.085095 -0.131518 0.103063 0.076298 -0.058710 0.044507 0.188660 -0.190274 0.124703 0.078303 -0.049008 0.076780 -0.002049 0.003507 -0.392056 0.232066 0.246987 0.355506 0.188983 -0.319795 -0.156848 0.149423 -0.165746 -0.518209 0.157438 0.275089 0.247577 -0.002783 -0.221997 -0.166693 -0.474067 -0.139392 0.140635 -0.145739 0.340458 -0.299436 0.306229 0.060254 0.085659 0.107347 0.055000 -0.101843 -0.214064 -0.091800 0.116243 -0.122524 -0.045582 0.394190 -0.135609 0.254972 -0.055868 0.086862 0.271408 0.126799 -0.133657 -0.058509 0.099785 -0.002929 0.002275 -0.136085 0.190888 0.033464 -0.038696 0.373657 -0.583093 0.468332 -0.034885 0.358250 0.068290 -0.083916 0.195861 0.080292 -0.153382 -0.067421 -0.079105 0.071830 
415 -0.009574 0.065717 -0.107192 -0.114663 -0.061507 -0.035241 0.064800 -0.317383 0.324772 0.299027 0.016401 -0.285573 0.109218 0.050906 0.260119 0.317441 0.580801 -0.151978 -0.023024 0.077648 0.025352 -0.038246 0.262363 0.054461 0.114037 0.142888 -0.184221 -0.211087 -0.127619 -0.219284 -0.264046 0.283016 0.098529 0.317968 -0.285632 0.105649 0.076062 0.382044 0.222588 0.638169 -0.091939 -0.118533 -0.148256 0.180124 -0.133416 0.176363 -0.136016 0.112261 0.039514 -0.016820 0.075018 0.850984 -0.330237 -0.222846 -0.190903 0.288285 0.074398 -0.076304 -0.047601 -0.027959 0.258567 0.154925 0.196366 0.429097 0.373424 0.090085 0.097800 -0.319435 0.241819 0.140481 0.401753 -0.342243 -0.192669 0.276976 0.058595 -0.102127 0.027684 -0.114888 0.329192 -0.043250 0.179328 0.046749 -0.518764 0.073454 0.184792 0.296713 0.032768 0.057434 0.022854 -0.176906 -0.067130 -0.002589 0.005128 -0.032172 -0.002507 0.006637 -0.178911 0.138147 -0.278169 0.233732 0.213151 0.174870 -0.161022 0.201091 0.229569 -0.083383 -0.056395 -0.106256 -0.170267 -0.025431 -0.039623 -0.246857 -0.237643 -0.115813 0.227070 0.009359 0.086387 0.291367 0.153336 0.223442 0.109507 0.199799 -0.071898 0.028228 -0.259200 -0.031090 -0.385427 -0.493866 
342 0.503302 -0.022032 -0.044428 0.597178 0.147372 -0.005722 -0.237424 -0.416846 -0.033819 -0.070590 0.542227 -0.691665 0.107643 0.238604 0.059734 -0.088088 0.116164 0.035198 -0.301926 0.421409 0.081640 0.369167 -0.197753 0.004283 0.180218 0.312302 0.099869 -0.637905 -0.167260 -0.178411 -0.159213 -0.322044 0.180332 0.037832 -0.175339 -0.230872 0.007393 -0.013633 -0.424190 0.022753 0.453490 0.144996 -0.290013 0.144847 0.364526 0.344265 0.169949 -0.014014 -0.171834 -0.058822 0.221722 0.128566 -0.093612 0.278776 0.057634 0.180593 -0.389093 -0.084168 -0.282272 0.188337 0.127598 0.046512 -0.480955 0.349454 -0.217972 0.145040 0.622646 0.178008 0.583856 -0.267393 0.097573 0.047882 0.155694 -0.087631 -0.370259 -0.595728 0.125380 0.098510 0.285440 -0.094921 0.217971 0.022758 -0.573672 -0.195928 0.132856 -0.180240 -0.180444 0.207497 0.276879 0.035909 0.484917 -0.078625 -0.010221 0.129707 -0.296638 -0.233956 0.157714 0.009495 0.187723 0.087397 0.343583 0.095264 0.085958 -0.458487 0.190294 -0.122757 -0.005818 -0.262946 0.003655 0.651248 0.051927 -0.060733 -0.442828 0.185296 0.293108 0.241391 -0.089518 0.193540 -0.401437 0.146723 0.089747 -0.451876 0.056056 -0.305670 0.128573 0.258920 -0.056062 0.208287 
102 0.258871 0.409062 0.153003 0.182950 -0.081004 -0.044161 -0.092136 -0.357879 -0.219349 -0.067652 0.132461 -0.357333 -0.075053 0.377470 0.193894 -0.053815 0.177631 -0.339204 0.228764 0.140715 -0.202482 -0.317952 -0.386364 0.010779 -0.245376 0.118594 -0.078285 -0.188734 0.408489 -0.204016 0.234670 0.110398 0.081616 -0.350822 -0.038674 -0.194901 0.221146 -0.039121 -0.478723 -0.128365 0.247006 -0.144704 -0.124949 -0.272089 -0.175964 -0.365098 0.291458 0.226379 0.183495 -0.212729 -0.359761 -0.060303 -0.075902 -0.107034 0.087872 -0.116630 -0.343467 0.059104 -0.185333 -0.222665 0.048803 0.270270 -0.202402 0.035937 0.196917 0.177936 0.446706 -0.213488 0.473206 0.197480 -0.015409 -0.218909 0.150878 -0.272577 0.009833 -0.108628 -0.052666 0.128272 0.421712 0.076767 0.297669 -0.266941 -0.189893 -0.269159 -0.195487 0.172714 -0.233574 0.009555 0.231790 0.150136 -0.357431 -0.006043 -0.227180 0.234725 0.255982 -0.116864 0.011880 0.328884 0.169256 0.228490 0.003779 0.102847 0.190456 0.299833 -0.363124 0.014065 0.060057 -0.348106 -0.078032 0.137841 -0.046166 0.179990 0.209889 -0.053315 0.103761 0.132776 0.242398 -0.060060 -0.241248 -0.096861 0.162204 0.319057 -0.091963 0.030078 0.020533 -0.335400 -0.371631 -0.022580 
223 -0.230672 0.054789 0.153387 -0.045778 -0.132017 -0.057392 -0.047152 -0.141746 -0.271840 0.373333 -0.177054 -0.280220 0.235568 -0.002597 0.124471 0.280818 -0.065228 0.065485 0.275705 -0.142654 -0.121674 0.124299 -0.314519 0.148384 -0.065449 0.026452 0.209649 -0.434707 0.246267 0.159363 -0.237941 -0.061225 -0.083309 -0.165907 -0.370867 0.262811 -0.103530 -0.154205 -0.435343 0.286381 -0.027625 -0.021359 -0.103637 0.014388 -0.084022 -0.190817 0.033276 -0.260293 0.164800 0.205499 -0.173867 0.132968 -0.148332 0.074693 0.219335 -0.347135 0.098274 0.240076 -0.329273 0.016204 0.078220 -0.068775 -0.075973 0.084875 0.327038 -0.356335 -0.003097 0.097395 -0.186506 -0.022453 0.320992 -0.354354 -0.045504 -0.322753 0.077478 0.128636 -0.205002 -0.119104 0.297531 0.125519 0.261467 -0.091791 -0.359679 -0.205728 -0.132018 0.335841 0.029440 0.211322 0.250872 0.208780 0.091684 -0.012219 -0.091250 -0.195036 0.089882 0.292443 0.217074 0.023272 0.037691 -0.060469 0.029073 0.121421 0.181004 0.155755 -0.024784 0.089991 -0.194941 -0.290510 -0.010737 -0.338778 0.127338 0.006905 -0.205005 -0.172644 0.125999 0.088841 0.058953 0.130928 -0.405717 0.355030 0.175344 -0.178182 -0.468348 0.233778 -0.128173 -0.028423 -0.076213 -0.362704 
87 -0.052666 -0.283966 0.001343 0.327420 0.244149 -0.315451 -0.011261 -0.287601 -0.093047 0.068478 0.112043 -0.263818 -0.049765 0.248770 0.305142 0.141745 -0.182215 -0.089741 0.371394 -0.001127 -0.297189 -0.053794 -0.110168 -0.006333 -0.010246 0.262911 -0.411964 -0.196986 0.223436 -0.061473 0.089996 0.232658 0.195329 0.165759 0.140733 0.100821 0.090722 0.009368 0.093789 0.059097 0.261177 0.137200 -0.032981 -0.203346 -0.076207 0.131806 -0.060995 -0.182232 -0.001910 0.059012 -0.089039 -0.197940 -0.302214 -0.156597 -0.109076 -0.158139 -0.046632 0.250130 0.073031 -0.113414 0.049828 0.309202 -0.253875 0.211178 -0.113973 -0.066712 0.209141 -0.241368 0.092167 0.373467 0.619089 -0.122490 0.361513 -0.197180 0.281902 -0.331219 0.114404 -0.084411 0.087197 -0.308110 0.195486 -0.334574 -0.249658 0.016395 -0.385385 -0.085443 0.064683 0.164412 0.411829 0.048282 0.118360 -0.250747 0.065372 -0.173503 0.134374 -0.122781 0.031283 -0.025504 -0.232211 0.270636 0.214572 0.154104 0.009855 -0.137061 -0.096966 -0.149566 0.160156 -0.012027 -0.577586 -0.071649 0.150211 0.031266 0.181227 -0.208991 0.096197 0.045300 0.038113 0.287467 -0.006861 0.388318 -0.104190 -0.010920 0.002631 -0.067236 -0.011978 0.267643 -0.097100 0.000586 
178 -0.005991 -0.287147 0.099290 -0.074484 0.019304 -0.363632 -0.086430 -0.110186 0.043315 0.407522 -0.269900 -0.226282 0.352316 0.096483 0.203084 -0.025161 -0.027767 -0.042994 0.280662 0.021865 0.291105 0.140724 -0.040009 -0.019058 -0.262958 0.252165 0.157839 -0.307275 0.102175 0.264836 -0.200413 -0.009369 -0.190500 -0.414488 0.049577 0.162794 0.185125 -0.165314 -0.123500 -0.015644 0.097788 0.021106 0.095841 -0.497262 -0.537198 -0.133964 -0.043263 -0.125868 0.199222 -0.410878 0.017433 -0.099698 -0.047445 0.226434 -0.033619 0.013149 -0.236537 0.171741 -0.142938 -0.225451 0.412970 -0.009183 0.002035 0.223541 -0.221508 0.045739 0.181936 -0.069322 0.021872 0.076264 0.082584 -0.140586 0.350129 -0.171426 0.253194 -0.110553 -0.314699 -0.127886 -0.110583 0.187776 0.478257 -0.225758 -0.381277 -0.089988 0.075254 0.064743 -0.011159 0.152564 0.053215 0.261270 0.267522 0.067873 0.386732 0.157436 0.073550 0.042835 -0.075888 0.130756 -0.141228 0.081920 0.042231 0.194305 0.020779 -0.058777 -0.378066 0.065340 -0.098854 -0.389764 -0.373013 -0.255290 0.128801 0.193862 -0.044575 -0.039182 0.054166 -0.157409 0.298628 -0.062626 0.016684 0.241503 -0.131616 -0.202092 0.070223 0.079761 0.583204 -0.090260 -0.363916 -0.109422 
65 0.316564 -0.242540 0.060641 0.142204 -0.015548 0.023318 -0.029923 -0.069779 -0.228814 0.391509 0.007898 -0.291089 0.154006 0.191681 -0.072819 0.107944 0.183075 -0.034426 0.252301 0.210205 -0.135030 -0.035464 0.193377 -0.015376 -0.247275 0.236347 -0.412868 -0.355099 0.422738 0.455075 -0.291868 0.233020 -0.017420 -0.344635 -0.143909 0.313705 -0.056490 0.122456 -0.195736 -0.111728 0.043967 0.116670 0.059837 -0.316412 -0.325245 -0.196659 -0.314353 -0.007542 0.370509 -0.279441 0.168448 0.006027 0.138957 -0.068961 0.321379 -0.178137 -0.113051 0.313644 -0.414652 -0.019378 0.345566 -0.065543 0.195641 0.125902 -0.039163 0.303477 0.066820 0.105227 -0.222878 -0.075557 0.126855 -0.026941 0.107382 -0.050209 0.322994 -0.122982 -0.153200 -0.045310 0.157045 0.017648 0.079854 -0.045768 -0.303373 -0.118037 -0.267096 -0.017126 -0.063630 0.200487 -0.011727 0.038739 -0.054468 0.106375 0.141041 -0.118396 0.023467 0.062459 0.131257 -0.189902 -0.328784 0.113086 -0.198171 0.409656 -0.071973 0.218178 0.101073 -0.081048 -0.158775 0.090116 -0.303806 0.017785 0.182995 0.003031 -0.069531 0.004409 -0.219132 -0.229981 -0.192980 0.143645 -0.255638 0.330694 -0.204396 0.333450 -0.322371 0.049215 0.084300 0.017216 -0.066568 -0.271687 
56 0.200486 0.201995 0.175339 0.056689 -0.107306 -0.087798 -0.175554 -0.562537 -0.431387 0.098806 -0.231085 -0.250796 -0.021016 0.240949 -0.073126 0.208673 0.162091 0.234195 0.236411 -0.297700 -0.047144 0.236467 -0.024909 -0.356668 -0.246845 0.062652 -0.037138 -0.077492 0.006981 0.182866 -0.052324 -0.119133 -0.112799 -0.021094 -0.049067 0.166251 0.093371 -0.134520 -0.303718 0.027247 0.237299 0.227467 -0.405915 -0.364780 -0.285221 -0.108162 0.269319 -0.150348 -0.076275 -0.038721 0.059181 0.132464 0.328774 0.089360 -0.044545 0.164513 0.001241 0.215167 0.035019 0.175471 -0.163797 0.274890 -0.251172 0.072691 -0.277457 0.144761 0.091646 0.069244 0.022113 0.100700 0.242840 -0.062620 0.123446 0.104293 0.388214 -0.146264 0.212385 -0.533156 0.127861 -0.575903 -0.190159 0.414827 -0.430529 -0.086755 0.122707 0.056472 0.182735 0.214822 0.097301 -0.182965 -0.430919 -0.139484 -0.217382 -0.000974 0.347451 0.109650 -0.033206 0.178618 -0.192518 0.033851 0.107032 0.184552 -0.242636 -0.088646 -0.070632 0.358894 0.333548 -0.238612 -0.049320 -0.168509 0.176240 -0.149237 -0.250568 -0.068669 0.299575 -0.065292 0.293588 0.043558 -0.222388 0.158881 -0.097451 0.334930 -0.083203 0.260212 0.069659 -0.091682 -0.054384 0.046635 
455 0.363809 -0.473239 -0.208181 -0.251196 0.189430 0.136438 -0.470930 0.066591 -0.044777 0.232386 -0.159163 -0.105394 0.256329 0.132843 -0.388758 -0.262715 -0.073688 0.032872 0.048320 0.295426 -0.076826 0.068254 0.142463 -0.313172 -0.175959 0.403445 -0.315097 -0.513895 -0.302550 -0.446736 0.214151 -0.178486 -0.214395 -0.171977 -0.268072 -0.229709 0.155988 -0.150445 -0.281445 0.480537 0.006945 -0.109319 -0.084682 -0.284384 0.333338 -0.084222 0.125072 0.296979 -0.083383 -0.215573 0.085343 0.424397 -0.127341 0.076710 0.265190 -0.218998 0.249287 0.543990 0.162723 -0.280416 0.045404 0.001989 -0.284063 -0.117365 0.436705 -0.480989 -0.222478 0.004686 0.151653 0.251868 -0.161813 -0.016746 -0.060245 0.137548 0.020097 -0.145851 0.246241 0.143709 0.302695 0.218666 -0.087879 -0.037706 -0.623870 0.263315 0.006879 -0.260297 0.710395 -0.332460 0.544040 0.210758 -0.034463 -0.244671 0.052160 0.003417 -0.006655 -0.112559 0.083961 0.028266 -0.312350 0.190334 0.020319 0.518510 0.202114 -0.040115 0.094693 0.160873 -0.162142 0.233404 -0.090667 -0.163040 0.103729 -0.145754 0.206824 0.123538 -0.010704 0.164838 -0.160322 0.058196 -0.247721 0.010416 -0.324026 0.126516 0.125255 -0.157192 0.140678 -0.044657 -0.174233 0.294493 
183 0.123227 0.089830 -0.103539 -0.177178 0.016585 -0.082441 -0.269163 -0.249801 0.135709 -0.239817 -0.102389 -0.390019 0.142175 0.176492 -0.080412 -0.018327 0.129776 0.177157 0.545651 0.197453 -0.060588 -0.226522 0.211777 -0.057019 -0.180655 0.070501 -0.079251 -0.167911 0.211544 0.010006 0.135687 -0.038651 -0.106327 -0.058664 0.025973 0.062247 0.042422 0.283237 0.048769 0.178964 -0.038570 0.140990 0.134262 -0.384718 -0.209078 -0.051404 -0.130646 0.025436 0.173169 -0.076305 -0.114736 0.165781 -0.016891 -0.193157 0.219895 0.161874 -0.079463 -0.219831 -0.443680 -0.373296 -0.005650 0.125642 0.114759 0.031501 0.326322 0.222645 0.068475 -0.207395 -0.014069 -0.116477 0.219936 -0.027597 0.210801 -0.218052 0.251639 -0.274539 0.195199 0.067760 0.221947 -0.215921 0.078291 -0.167876 -0.296645 0.085415 0.044428 0.263479 -0.308991 0.100135 0.443659 0.177468 -0.390552 -0.554818 0.243212 -0.517692 0.155650 0.077631 0.010134 -0.119872 -0.176096 -0.018376 0.141602 0.036024 -0.457877 0.269115 0.142655 -0.233821 -0.030867 -0.261331 -0.070316 -0.285763 -0.127120 -0.188017 0.179525 0.301061 0.160462 0.196361 0.255773 0.531516 -0.023998 0.321838 -0.407495 -0.109931 0.108540 -0.139953 0.087322 0.264838 -0.135400 -0.141963 
460 0.260420 0.083619 -0.046299 -0.173752 0.101766 -0.116888 -0.375840 -0.236769 -0.080186 0.189700 -0.223626 -0.179174 -0.256674 0.294222 -0.240206 -0.161294 -0.257682 -0.190052 -0.233129 0.203546 0.295442 0.026059 -0.164078 -0.451411 -0.004967 0.313114 -0.106843 -0.756092 0.121819 -0.285480 0.074786 -0.204479 -0.006254 -0.098631 0.031163 -0.270544 0.238763 -0.160202 -0.359595 0.229119 0.148774 -0.175580 0.287614 -0.187117 0.191602 0.355347 0.174219 -0.163558 -0.021094 -0.073638 -0.067117 0.100806 -0.050216 0.044024 0.090860 -0.342187 0.171526 0.177087 -0.214707 -0.337213 0.103336 -0.420665 0.159528 0.023723 -0.009664 0.211096 -0.113486 0.322480 0.027016 0.336715 -0.123764 -0.801876 -0.332902 0.173943 0.173654 -0.179978 -0.237319 0.080937 -0.043304 0.068429 0.119719 -0.142582 -0.525051 0.035935 0.095430 -0.415757 0.028577 -0.254610 0.208451 0.204708 0.153559 0.285986 -0.242933 0.033126 0.172058 0.024196 0.034511 -0.046384 -0.234961 0.055532 -0.289418 0.524043 0.364782 -0.038660 -0.049039 -0.016032 0.002334 0.052004 0.145642 -0.099448 -0.340237 -0.187800 0.049836 0.504503 0.066705 0.455501 -0.169161 -0.230781 -0.005209 0.037817 0.070457 0.465218 -0.114351 -0.054613 -0.226722 -0.009971 -0.153886 0.085244 
116 0.259470 -0.035200 0.253180 0.070436 0.192824 -0.002976 -0.181491 -0.684253 0.007248 0.106962 -0.365844 -0.400640 0.096180 0.017447 -0.070703 -0.143093 0.129430 -0.008950 0.208327 0.136996 -0.066328 0.102141 0.102857 0.253477 -0.219325 0.266795 0.229472 -0.235218 0.339238 0.158071 -0.121965 -0.034003 -0.106885 -0.252078 -0.080269 -0.149655 0.054660 0.163720 0.079874 -0.246343 0.487357 -0.377890 0.304586 0.435744 0.361204 0.472755 -0.222645 -0.211024 0.216900 -0.324804 -0.592667 0.119267 0.252665 -0.186641 -0.184647 -0.270553 0.201828 0.026006 -0.098033 0.335055 -0.150947 0.231895 0.280264 0.490272 -0.056092 0.274638 0.022163 0.019981 -0.018426 0.107093 0.106283 0.071963 0.317444 -0.099751 0.274696 -0.255348 -0.253143 0.305380 0.237532 -0.047234 -0.036627 0.058366 -0.357632 -0.081551 -0.155769 0.000052 0.043951 -0.120805 0.272677 -0.024231 0.055875 0.183060 0.139264 -0.014411 0.000774 0.158047 0.333573 0.135154 0.142255 0.559275 -0.137593 0.209632 -0.056823 0.266745 -0.444611 0.027254 -0.030947 -0.246724 -0.103882 0.145459 -0.083728 0.162513 -0.283741 0.047817 -0.120123 -0.094009 0.357332 0.193581 -0.375543 0.130107 0.192380 0.578314 -0.010086 0.214318 0.306569 0.334104 -0.031755 -0.184811 
51 0.463974 0.189541 0.112325 0.161374 -0.165165 0.192353 -0.327960 -0.511615 0.023763 -0.084411 -0.527134 -0.238405 -0.088139 -0.152173 -0.056625 -0.122425 -0.000587 -0.049287 -0.074277 0.148142 -0.132856 0.245611 0.196005 0.112537 0.013842 0.177866 -0.096352 -0.286833 0.082235 0.370981 0.112513 -0.196843 0.341206 -0.268100 0.006552 0.466074 -0.268706 0.327813 -0.059690 0.116581 0.144297 -0.011142 -0.286559 -0.138512 -0.238641 -0.360929 -0.121194 -0.100032 -0.032915 -0.218108 -0.026202 0.391687 0.249284 -0.011350 -0.049787 0.238962 0.130463 -0.010720 -0.246633 -0.096652 -0.021095 0.293011 0.225079 0.271791 -0.046558 0.099474 -0.047024 -0.010705 -0.127050 -0.070341 0.249055 -0.108077 -0.177571 -0.297087 0.581885 -0.270989 -0.158544 0.256834 0.239078 -0.274821 -0.057637 -0.008831 -0.119903 -0.354861 -0.037528 0.236159 -0.117591 0.297077 0.253050 0.306735 0.174127 0.009673 0.057192 -0.116976 -0.072327 0.009194 0.078893 -0.320727 -0.292027 0.184136 0.014116 0.172093 0.298867 -0.054231 -0.646403 0.068203 0.085541 0.110798 -0.081467 -0.183066 0.116627 0.016798 -0.022203 0.175397 -0.022197 0.312579 0.247268 0.019130 -0.381566 0.273778 0.026522 -0.121757 -0.081393 0.278236 0.010932 -0.152054 -0.295437 -0.043061 
226 0.139746 0.255085 0.179018 0.300516 -0.334727 -0.312262 -0.204622 -0.431036 0.002839 0.208693 0.016018 -0.308672 0.295775 0.159919 0.166311 0.008079 -0.048731 0.094338 0.572674 0.205934 0.130081 -0.266149 0.046759 0.109520 0.033455 -0.102103 -0.042204 -0.232728 -0.127013 -0.111981 0.401335 0.369361 -0.173558 -0.249747 -0.282481 0.059132 -0.076355 -0.225045 -0.365174 0.292225 0.345623 -0.392365 -0.058771 -0.490217 -0.111344 0.146644 -0.072507 -0.121259 0.012087 -0.300869 -0.149321 0.044125 -0.007396 -0.289401 0.021797 0.141730 0.042999 0.431422 -0.122271 -0.021758 -0.198676 0.093672 0.177201 0.165202 -0.061838 0.201356 0.114082 -0.009692 -0.118867 0.101849 -0.172489 -0.135601 0.232841 -0.194925 0.172949 -0.328266 0.199702 -0.008122 0.006591 0.192652 0.396957 0.078008 -0.088045 0.329570 -0.059162 0.137186 -0.381015 0.393680 0.574348 0.237641 -0.091129 -0.111290 -0.216306 0.070923 -0.109584 0.184778 0.003094 -0.046699 0.044653 -0.254746 -0.118295 0.418568 0.050164 0.299630 -0.104370 -0.103303 0.310302 -0.054874 -0.325705 -0.013415 0.069882 0.169189 0.219969 -0.113948 0.368277 0.220135 0.479882 0.101814 -0.103727 -0.047034 -0.084516 -0.180996 -0.336718 -0.139757 0.037063 -0.012757 -0.051629 0.030063 
248 0.374222 0.174412 0.099841 0.273609 -0.276727 -0.361420 -0.035903 -0.364383 -0.421264 0.038688 0.153113 -0.006434 0.381820 0.170617 0.229473 0.283734 0.241609 -0.157667 0.233571 -0.004879 -0.306038 -0.122637 0.018962 0.173935 -0.213829 0.256300 -0.041241 -0.334817 0.034616 -0.239591 0.467082 0.128903 -0.233078 0.276685 0.022967 0.073664 0.052801 0.044073 0.044417 0.008145 0.003145 -0.047088 -0.038463 -0.263792 -0.181081 0.015849 0.025491 -0.204505 -0.069461 -0.249720 -0.224270 -0.162717 0.262238 0.260712 0.016721 0.189717 0.298414 0.355557 0.053071 0.266759 -0.078815 0.107616 -0.011359 0.127293 0.044657 0.079087 -0.064583 -0.070265 0.189754 -0.004274 0.216185 -0.350795 0.238413 -0.325947 0.025668 -0.250504 0.205861 -0.048474 0.158942 0.033802 0.244998 0.129888 -0.354905 0.007321 -0.127045 -0.444809 -0.121896 0.193290 0.490727 0.132288 -0.274472 0.027705 -0.221045 0.042209 0.473344 0.249846 -0.092201 0.117314 -0.400195 -0.014463 0.249748 0.006091 0.013483 0.218973 -0.364138 0.295360 0.277824 -0.148907 -0.030161 -0.197945 0.116649 0.048178 0.110135 0.195695 -0.054990 0.264212 0.187375 -0.090669 -0.137402 -0.409575 0.084482 0.060482 -0.351481 -0.077738 0.107848 -0.345350 -0.367294 -0.084905 
130 0.220672 0.097601 0.404575 0.230615 0.090100 -0.073039 -0.161119 -0.100782 0.207600 0.072066 -0.196099 -0.563986 0.090038 0.242721 -0.026209 0.010655 0.070079 0.268169 -0.024964 0.196222 -0.153992 -0.150541 -0.035511 0.341015 -0.036680 -0.037778 0.094967 0.069838 0.043391 -0.073144 -0.084024 0.241438 -0.028208 -0.096390 -0.429235 0.275263 0.039429 0.149632 -0.115631 0.246321 0.164691 0.098371 0.031576 -0.135440 -0.166259 -0.038940 0.482923 -0.133531 0.660266 -0.239040 -0.275411 0.044910 0.173393 -0.179567 0.024955 -0.355927 -0.046755 0.387121 0.048003 0.156749 -0.005088 0.184662 -0.272937 0.103081 0.124889 -0.105963 0.238762 0.348465 0.125160 0.280334 0.186282 0.290541 -0.086886 0.129611 0.123481 -0.191659 -0.005944 -0.021520 0.351183 -0.198886 0.219869 -0.131688 -0.465682 -0.153613 -0.014930 0.236625 -0.240499 0.058730 0.424877 0.051171 -0.143158 0.095594 0.026768 -0.048456 0.220984 -0.149405 0.307860 0.111610 -0.052319 0.254656 0.110362 0.096381 -0.066962 -0.320713 -0.140571 0.179839 0.281953 -0.305235 -0.034065 -0.179552 -0.137349 0.196098 0.334967 -0.113873 0.108064 -0.192004 0.072701 -0.150151 -0.227902 0.394743 -0.188285 -0.097448 -0.361153 0.286463 -0.204052 -0.047949 -0.080315 -0.081135 
182 -0.145465 0.169115 -0.332066 -0.309612 0.332480 0.066741 -0.054230 -0.326139 0.073763 0.043065 -0.130859 -0.050892 0.261573 0.129571 -0.158747 0.108777 0.188457 0.384319 0.135431 0.036731 -0.243554 0.216428 0.031304 -0.055228 -0.101192 -0.165216 0.087905 -0.125668 0.146070 -0.061183 0.174533 0.481530 -0.158370 -0.271974 -0.109019 -0.278637 -0.120683 0.087048 0.301677 0.308500 0.236253 0.008758 -0.030855 -0.307884 0.010386 -0.070699 -0.370160 -0.197548 0.296446 -0.271634 -0.093968 0.181638 0.008627 0.266022 -0.017559 -0.181469 -0.077268 0.037133 -0.267904 -0.241460 0.006290 0.266528 -0.046239 0.228097 0.005577 -0.076387 0.062145 -0.239376 0.122880 0.098393 0.124317 -0.179650 0.092585 0.013257 0.238733 -0.268010 -0.255900 -0.415263 -0.142557 -0.175421 0.578463 -0.051124 -0.408491 -0.071145 0.198395 0.015253 -0.190915 0.206751 0.259008 0.228514 -0.304342 -0.429935 0.195648 0.017457 0.546094 0.037750 -0.110888 -0.017620 0.064923 -0.140473 -0.329876 0.279146 -0.269588 0.064321 0.187717 -0.277499 0.506662 -0.028987 -0.316521 -0.298681 0.080535 -0.214451 0.141234 0.351025 0.273127 0.152702 0.401973 0.650576 -0.303158 0.307777 -0.064710 -0.276965 -0.215368 0.046055 0.131974 -0.388233 0.170195 -0.117406 
323 0.267984 -0.303772 -0.102970 0.032846 -0.150201 0.320728 0.088504 -0.707017 -0.452460 0.046474 0.058768 -0.437585 0.084904 0.006184 -0.069780 -0.059346 -0.013533 -0.546418 0.744722 0.028201 -0.278947 0.094522 0.158317 0.339152 0.162603 -0.430889 0.242671 -0.587926 -0.327778 -0.428158 0.152067 -0.152254 0.086692 -0.017688 0.137917 -0.270348 -0.068639 0.203147 0.094579 0.210882 0.336561 -0.197053 -0.152946 -0.141016 0.184879 0.040274 -0.394158 0.058632 -0.065573 0.388878 0.215075 0.167616 0.019075 0.083533 0.188076 0.316407 -0.186475 0.035071 0.013632 0.041693 -0.354067 0.105351 -0.076887 0.312553 0.072164 -0.111729 -0.239883 -0.596627 -0.095365 0.131032 0.457049 0.298844 -0.412956 0.307650 -0.086593 0.262173 -0.450947 0.049064 -0.015810 -0.153182 0.172446 -0.264106 -0.847562 -0.321582 0.428926 -0.044297 -0.083235 -0.068725 0.093686 -0.132408 0.295768 0.246329 -0.549491 0.026460 -0.091928 0.015403 -0.030791 0.364722 0.059405 0.266101 -0.188589 0.417879 -0.336987 0.046857 0.195226 -0.278890 0.200653 -0.094330 0.855618 -0.210990 0.329188 -0.072983 -0.271007 -0.068635 0.523140 -0.271933 -0.171972 0.028251 -0.426052 -0.075247 0.168452 -0.104855 -0.103825 0.097937 -0.145062 -0.028938 -0.484989 -0.151725 
81 0.007656 -0.005376 0.006099 -0.012267 0.259962 -0.235832 -0.168244 -0.059698 0.059229 0.446635 -0.035335 -0.138665 -0.155097 -0.050019 0.276370 -0.030520 0.069087 -0.012246 0.189328 0.065098 0.231589 0.017877 -0.048004 0.094664 -0.229151 -0.115464 0.071240 -0.010573 -0.085426 0.067015 -0.168632 0.135587 0.004726 -0.296436 -0.130686 0.117136 0.000249 -0.109340 -0.103493 -0.120794 -0.060792 0.391676 -0.023247 -0.067857 0.141184 -0.021772 -0.062545 -0.230148 -0.174315 0.062126 -0.250018 0.280571 0.205805 0.190527 -0.085053 -0.032615 -0.052035 0.300513 0.259640 -0.269141 0.047496 -0.059444 -0.033484 0.673984 -0.115426 -0.032619 -0.134716 -0.034106 -0.058616 0.014821 0.421764 -0.296418 -0.235178 -0.035163 0.403928 -0.175020 0.123804 -0.091222 -0.040810 0.098190 0.163364 -0.211008 -0.431080 -0.108101 -0.136314 0.007031 -0.197655 0.046792 0.139316 0.266420 0.002247 0.219395 0.013983 0.028092 0.367147 0.261287 -0.018347 -0.499039 0.194330 0.187160 -0.053788 0.142317 0.300742 0.351850 0.263001 -0.290861 -0.262839 -0.085742 -0.306663 -0.071618 0.105799 -0.022189 -0.183668 0.000556 -0.077554 0.466208 0.183700 0.217641 -0.442542 0.454794 -0.258529 -0.284929 -0.259079 0.121116 0.015894 -0.174764 -0.108117 -0.308847 
164 -0.045134 0.073497 0.039181 0.165455 0.006201 -0.168366 -0.151229 -0.035817 -0.021589 0.504129 -0.112123 -0.476608 0.182401 -0.051259 0.450849 0.332215 0.191785 -0.104634 0.289878 0.147195 0.106100 0.158668 0.375240 0.019995 -0.041633 -0.044962 -0.066116 -0.113824 0.016228 0.036651 0.012562 0.257863 0.376460 -0.032411 0.030707 -0.108524 0.246181 0.296444 -0.341791 0.105977 0.242856 0.066315 -0.138055 -0.531362 -0.208633 -0.035099 0.009904 -0.292443 -0.098608 -0.014756 -0.472876 0.004623 0.002510 0.171269 0.261918 -0.292293 0.012199 0.011443 -0.366489 0.062551 0.089039 0.175827 -0.126145 0.248096 -0.135977 -0.138079 0.098714 -0.408741 -0.222737 0.220316 0.183722 -0.122103 0.140651 -0.256356 0.451960 -0.014967 0.262774 -0.090548 0.196384 0.121739 -0.120481 -0.029996 -0.432900 -0.200358 -0.329146 -0.259761 0.316764 -0.036865 -0.060392 0.255943 0.217712 0.278073 -0.205259 0.216858 0.363328 0.449907 -0.020460 0.306281 -0.301055 0.441211 -0.118522 -0.041952 0.064529 0.032577 0.175154 0.035104 0.217236 0.193902 0.150357 0.151643 0.000549 0.123814 -0.356738 0.351616 -0.408764 -0.135604 -0.374640 0.131041 -0.312158 0.011784 0.064685 0.409239 -0.170347 -0.117057 -0.210454 -0.009120 0.333255 -0.116833 
582 0.070049 -0.162620 0.126087 0.138524 -0.310081 0.163044 -0.068793 -0.420636 0.200673 -0.148527 -0.617477 -0.402431 0.309905 0.280925 0.611975 0.397873 0.137531 -0.222418 0.214977 0.495461 -0.192709 0.244961 0.094070 0.131722 -0.373268 -0.123582 -0.108676 -0.278662 -0.113737 -0.350559 -0.135052 0.026784 0.149825 0.455366 0.076938 -0.421996 0.632069 0.091457 -0.472727 0.228587 0.120333 0.786567 0.007682 -0.014305 0.203097 0.139593 -0.164696 0.081594 -0.056521 0.156836 -0.070414 0.449628 0.065074 -0.192278 0.157247 0.151937 -0.089619 -0.168362 0.084750 -0.242904 -0.186580 -0.138728 0.104121 0.321765 0.225509 0.110476 -0.254529 0.299859 -0.126478 0.064074 0.035778 -0.240590 0.300110 0.605089 -0.170959 -0.018772 -0.118849 -0.117567 -0.291220 0.209450 0.134337 0.428380 -0.627733 -0.525129 -0.120342 -0.096409 0.001199 0.425797 -0.006650 0.358850 -0.039124 -0.436785 0.041349 0.077429 -0.425217 -0.547555 -0.089627 0.335688 -0.003909 0.462450 0.193016 0.377480 0.082835 -0.196647 -0.448951 -0.006994 -0.004041 0.286945 0.061324 0.188366 0.098749 -0.127718 0.111223 -0.087406 0.357036 0.491284 0.179129 -0.138928 -0.131523 0.154858 -0.067056 0.024141 -0.376812 0.208266 0.106790 0.053294 -0.331103 0.390670 
165 -0.049456 -0.154698 0.081380 -0.170697 -0.015017 0.031656 -0.367082 -0.296633 -0.160304 -0.051077 -0.299331 -0.150779 -0.471513 -0.029545 -0.199369 -0.016381 0.186943 0.226165 0.175861 -0.022120 0.078520 -0.214648 0.112074 0.081216 -0.468989 0.089438 0.026023 -0.205921 -0.284225 0.309435 -0.063527 0.096115 0.346624 -0.293840 -0.021432 0.253419 0.078529 0.065849 -0.374152 0.262905 -0.136452 0.211124 -0.145531 -0.288210 -0.176650 0.236779 0.186845 -0.097217 -0.272552 -0.185435 -0.203767 -0.042003 0.202583 -0.154114 -0.282178 0.572375 -0.338307 -0.059781 -0.082160 -0.238432 -0.014295 0.012364 -0.384430 0.389816 -0.007856 0.205869 -0.020295 -0.232341 -0.226159 0.167717 0.450435 -0.226253 -0.210379 0.099782 0.656219 0.261874 0.445042 0.391326 -0.048330 -0.096670 0.223888 -0.211624 -0.619845 0.010547 0.194090 -0.085679 0.128217 0.470485 -0.009910 0.360577 -0.360514 -0.153466 0.012704 0.089268 0.121806 -0.096606 0.193585 -0.058526 -0.249797 0.039191 0.033245 0.005293 -0.129497 0.082584 -0.219349 0.328634 -0.187497 0.055835 0.050168 0.529206 -0.010184 -0.165581 0.078690 0.109441 -0.105794 -0.292140 0.106486 0.043703 -0.481625 0.110326 0.129444 0.152405 0.122361 -0.068461 -0.043823 0.129438 0.065331 -0.096228 
52 0.286492 0.013567 0.287841 -0.414642 0.062979 0.229968 -0.182402 -0.185366 -0.014559 0.102103 -0.292606 -0.134024 0.158334 0.116409 0.258195 0.203988 -0.273227 -0.199472 0.033395 0.135775 0.491743 0.089632 -0.245559 -0.305817 -0.239638 -0.008843 -0.354991 -0.267411 -0.233028 -0.222657 -0.204219 0.017112 0.185414 -0.549387 -0.291405 0.133027 0.353172 0.022618 0.079873 -0.373471 0.364552 -0.111259 -0.005001 -0.454876 -0.132302 0.122754 0.211559 -0.188094 -0.009029 -0.096936 0.141149 0.125286 -0.039298 -0.036273 -0.294616 -0.261771 -0.057749 0.469451 -0.430646 0.074509 -0.057714 0.100591 0.104110 -0.058545 0.191041 0.002662 0.103228 0.122677 -0.001559 0.093933 0.134646 -0.288751 -0.082832 -0.387812 0.446900 -0.309158 0.512074 -0.139339 -0.024880 -0.220999 0.001342 0.057137 -0.288140 0.034843 0.029231 -0.163032 0.221391 -0.083249 0.279179 -0.003695 0.099342 0.223217 -0.247144 -0.190815 -0.078862 0.084657 0.323159 -0.134170 -0.144975 -0.185220 0.029523 0.263967 0.104453 0.071826 -0.123152 -0.026715 -0.282643 -0.020510 -0.384904 -0.121526 0.352169 0.029827 0.058083 -0.016214 0.199804 0.024856 0.268552 -0.131932 -0.431151 0.310033 0.108190 -0.221482 -0.099024 -0.206197 0.261367 -0.199222 -0.013459 -0.128106 
218 0.207052 0.218948 0.179077 0.002627 -0.102576 -0.164606 -0.510020 -0.344005 -0.290297 0.015694 -0.111067 -0.613450 0.257459 -0.170576 0.135149 0.347741 0.131697 0.073054 0.250325 0.209423 -0.421237 0.138614 -0.058427 0.322202 -0.037967 -0.095102 0.082074 -0.320545 0.346366 0.166422 -0.217439 -0.223697 -0.051653 -0.015495 0.108734 -0.089621 -0.211117 0.395445 0.266127 0.183310 -0.016360 0.384479 0.139112 -0.380042 -0.407445 -0.371173 -0.159520 -0.258285 -0.320254 -0.140713 0.067296 -0.226087 -0.623272 -0.011290 0.315724 0.158298 -0.293873 0.486451 -0.053255 -0.098274 -0.103047 0.414142 0.138933 0.413527 0.187249 0.192994 -0.022233 -0.390438 0.015581 0.126033 -0.050180 0.239422 -0.008840 -0.116093 0.190719 -0.110187 -0.189101 0.171265 0.635955 0.230522 0.263517 0.141483 -0.368477 0.069158 -0.407644 0.157409 0.053193 -0.104068 0.418390 -0.148687 -0.378578 0.010310 -0.077949 -0.117232 -0.063880 0.049407 0.146157 0.333983 -0.239592 0.189185 -0.076138 0.096085 0.042699 0.144057 -0.162600 -0.614097 0.075152 -0.465707 -0.231452 -0.356059 0.273187 0.055374 -0.088951 -0.204635 0.031182 0.204250 -0.104773 -0.085671 -0.002519 0.322510 -0.004925 0.324562 -0.136769 0.077270 -0.156222 -0.045390 -0.076927 0.213597 
335 0.347728 -0.235303 -0.010100 -0.078309 0.148760 -0.188626 0.106832 -0.213493 -0.197026 0.398472 -0.034923 -0.255647 -0.389667 0.226782 0.239818 -0.045180 -0.343572 0.029206 0.123244 -0.015680 -0.216560 0.355776 0.041809 -0.293641 0.411197 -0.301953 -0.294225 0.005779 0.022768 0.021657 0.032245 0.038832 -0.041362 -0.242030 0.062584 0.198261 -0.065323 -0.032884 0.209149 -0.283007 0.255702 -0.438897 0.022806 0.089877 0.089172 0.210125 -0.076054 0.093554 0.063124 0.095804 -0.119120 -0.253317 0.175891 0.071468 0.328629 -0.044158 -0.106380 0.276026 -0.072404 -0.207832 0.099913 0.144803 0.144000 0.447533 0.565383 0.032708 -0.004101 -0.052442 0.048441 0.416030 -0.136703 -0.175694 0.035684 0.410912 0.262835 -0.133886 0.023163 -0.212590 -0.124711 0.161190 0.121690 0.163980 -0.684530 0.191754 -0.060427 -0.028324 -0.331361 -0.246115 0.142852 0.360077 0.051598 -0.132326 0.247010 0.334463 0.077711 -0.187816 -0.249065 0.098269 -0.227261 0.445220 0.124097 0.087163 0.073583 -0.280175 -0.262652 0.120297 -0.225258 -0.129212 -0.325372 -0.182418 0.278628 0.027062 -0.084947 0.462975 -0.166457 0.110223 0.357808 -0.097591 -0.224699 0.368648 -0.128364 0.398152 0.037611 0.078931 -0.138021 -0.200609 -0.117509 0.200740 
44 0.203483 0.040627 -0.052007 -0.032316 -0.064496 -0.156562 -0.258645 -0.183279 0.159373 -0.075798 -0.288145 -0.687158 0.382975 0.372937 0.012683 -0.136111 -0.078189 0.089869 0.104201 -0.122586 0.002286 0.304312 0.106306 -0.028150 -0.110966 -0.218813 -0.347243 -0.349390 -0.099900 0.120058 -0.434592 0.058113 -0.233702 -0.102019 0.266034 -0.069650 0.224440 0.486360 -0.356721 -0.000574 0.056660 -0.275247 -0.150451 -0.513742 -0.466430 0.343178 0.027320 0.138667 0.217559 -0.438662 0.166416 -0.195655 -0.028714 0.089341 0.027533 0.269816 -0.218832 -0.055714 -0.193381 0.023962 -0.158740 0.148516 0.220087 0.099570 -0.256302 0.217684 0.117229 0.101843 -0.043906 -0.220465 0.069586 -0.047549 -0.204573 0.348123 0.133759 -0.181571 -0.110023 -0.536961 0.462570 -0.319698 -0.081111 0.289940 -0.614287 -0.120950 -0.064304 0.253758 0.372516 -0.370912 -0.043747 0.082015 -0.095920 -0.138375 -0.055511 0.271219 0.049160 0.195189 0.236420 -0.252188 -0.325755 0.127048 0.357387 -0.319328 -0.090338 0.384628 0.128750 -0.120365 0.024956 -0.248679 0.326920 -0.252460 0.347915 -0.173674 0.074905 -0.240467 0.284702 -0.066533 0.308245 -0.284137 -0.309672 0.253609 -0.135060 0.046549 -0.223541 0.342128 -0.196727 0.303390 0.476129 -0.303301 
416 -0.096431 0.019593 0.199997 -0.030088 -0.152476 0.149615 -0.059829 -0.111518 -0.022633 0.396805 -0.293615 -0.372037 -0.089728 -0.048503 0.036703 0.200820 0.387334 0.281106 0.035182 0.143370 -0.048398 0.217023 -0.334108 0.028839 0.048845 -0.000692 -0.724372 0.172235 0.069287 -0.321027 0.267620 -0.159828 -0.121592 0.091657 -0.360203 -0.219244 0.016207 -0.089519 -0.078427 0.164046 0.139072 -0.400732 -0.078130 -0.107377 0.160541 -0.156774 -0.201282 0.255293 0.245351 -0.242561 0.319183 -0.166696 -0.290733 -0.034903 0.243500 0.111693 -0.113307 0.120170 0.073499 0.022099 0.029963 0.287327 -0.386303 0.263446 0.329570 0.613039 0.330304 -0.115013 0.150127 -0.192383 -0.068537 -0.447465 -0.224578 0.112204 0.385673 -0.399203 -0.053919 0.270960 0.261486 -0.112170 0.027784 0.042401 -0.511116 -0.133180 -0.199010 0.166538 -0.087689 0.333866 0.049496 0.034800 0.073232 0.588817 0.380959 0.375687 0.234203 0.074099 -0.047708 0.117506 0.105834 0.174109 0.310515 0.381361 -0.239101 0.132490 0.180424 -0.068712 -0.286562 0.017058 -0.040757 -0.176550 0.209040 -0.112360 0.152187 0.286243 0.042303 -0.039916 -0.280110 -0.076790 -0.114176 0.349301 0.001455 -0.231843 0.160826 -0.216230 0.145082 -0.007634 -0.171544 0.249272 
84 0.378347 0.023595 0.151018 0.203724 0.161463 0.079456 -0.000818 -0.654243 -0.089754 0.067944 -0.353975 -0.167470 0.207467 0.379675 -0.043664 -0.035790 -0.146260 -0.041873 0.611343 0.529390 0.002144 0.081640 0.180752 0.106384 -0.240357 -0.100255 -0.149063 0.027131 -0.119670 0.168364 0.064442 0.214840 -0.248364 0.123815 -0.199910 0.322755 0.194607 0.253556 -0.047229 0.159076 0.062461 0.082494 -0.553901 -0.186530 -0.166350 -0.155423 -0.214809 -0.257399 -0.030011 -0.065278 -0.411690 -0.152434 -0.153778 0.177401 -0.010382 -0.124247 -0.125853 0.099429 0.006644 -0.339871 0.213208 -0.039495 -0.267233 0.142992 0.213901 0.413186 0.039915 0.161681 0.272970 -0.111488 0.255246 0.149849 0.293837 -0.069325 0.362248 -0.076503 -0.084508 0.187355 0.013809 0.367732 0.488706 0.222939 -0.330615 0.434089 0.127870 -0.004142 -0.493717 0.347017 0.535791 -0.108738 0.063383 -0.262729 0.108354 -0.269066 0.106145 -0.012357 0.147260 0.388100 -0.052759 0.194294 -0.247610 0.121042 0.027501 -0.171992 -0.135484 -0.133407 -0.090968 -0.474708 -0.074012 -0.083896 0.228762 0.070260 0.286259 -0.265334 0.108866 0.152454 0.342956 0.169712 0.166522 0.278511 0.318069 -0.058806 -0.128686 -0.267454 -0.126769 -0.168407 0.104493 0.070267 
389 -0.103042 0.044413 -0.205336 0.054920 -0.000593 -0.084925 0.066486 -0.204005 -0.257562 0.011298 -0.613757 -0.005730 0.046124 0.412188 0.088019 0.371740 0.161320 0.209355 0.165182 0.153633 -0.176640 -0.214077 -0.125362 0.424971 0.064015 -0.194986 -0.176665 0.039484 0.137879 -0.044138 -0.452305 0.502616 0.121234 0.294387 0.143599 0.059114 0.205796 -0.035029 0.076189 0.081399 0.028666 -0.041644 0.415442 0.281200 0.162114 0.370048 0.213247 -0.048915 0.183802 -0.151505 0.108124 0.407848 -0.118074 -0.428683 0.097563 0.047383 -0.183776 0.160289 0.254705 -0.110559 -0.126679 -0.124967 0.155002 0.303798 0.382484 0.286600 0.102358 -0.249221 0.355210 0.148140 0.284295 -0.222624 0.255902 -0.260669 0.193860 -0.209188 -0.035446 -0.325970 0.098708 0.140653 0.160343 0.236733 -0.836514 0.098018 -0.339745 0.176129 0.185182 0.693301 0.259744 -0.132930 0.056266 -0.081215 -0.186221 0.289488 0.365322 0.153176 0.133085 -0.258595 0.099380 -0.271413 0.146763 0.137713 0.230336 0.097804 0.038631 0.187701 -0.222446 -0.218024 -0.233595 0.071439 0.074507 -0.100573 0.111810 0.244725 0.244804 -0.293712 0.022550 0.450897 -0.057064 -0.098468 -0.096003 -0.070754 -0.284047 -0.040253 -0.199148 -0.069146 0.076633 0.100219 
17 -0.173549 -0.231310 -0.314556 -0.175611 0.116681 -0.131450 0.043127 -0.006049 -0.331564 0.527585 -0.257450 -0.692061 -0.367276 0.243116 0.344506 0.033567 -0.201352 -0.134967 0.092725 0.150329 0.243476 0.007400 -0.338743 -0.064194 -0.221078 -0.034818 -0.029844 -0.351538 -0.192321 -0.479754 0.298154 0.261397 0.017321 -0.245370 0.072649 0.253749 -0.016413 -0.092135 -0.022934 0.143539 -0.004643 0.096377 -0.228815 -0.178773 0.093679 -0.138926 -0.118109 -0.174430 -0.034568 -0.073614 0.067882 0.255106 0.241114 0.040692 -0.111167 -0.191490 0.451493 -0.009534 0.145415 0.178017 0.238238 -0.061844 -0.094361 0.225448 0.123359 -0.165669 0.001115 -0.036666 -0.079830 0.275351 0.380145 0.051285 -0.186582 -0.336273 0.230261 -0.094326 0.308325 -0.250008 -0.049496 0.191471 0.142945 0.292959 -0.412358 -0.180365 -0.212156 0.421243 -0.092010 0.162815 0.211572 0.158678 0.095035 0.082671 0.004212 -0.035953 0.263076 -0.250035 -0.198004 -0.287938 0.067143 -0.019621 0.219836 0.055154 0.044207 0.104070 0.001030 -0.071325 -0.487351 -0.177209 -0.293703 -0.205160 -0.087275 -0.221719 -0.284213 0.195332 0.110657 0.569764 0.244770 0.021143 -0.338613 0.036165 -0.274178 -0.386844 -0.217377 0.267776 0.238086 0.070010 0.092523 -0.380216 
71 0.027617 0.342119 -0.159789 0.021986 0.252855 -0.078692 -0.447043 -0.331104 -0.336131 0.170990 -0.099680 -0.374023 0.185136 0.307488 0.583143 -0.231202 0.207479 0.090637 -0.149856 0.199978 0.228376 0.297020 -0.002503 -0.166500 0.034842 0.005174 0.240006 -0.111132 0.254431 0.100512 0.187910 -0.049402 0.175607 -0.199582 0.161275 0.200041 0.235323 -0.188263 -0.050168 0.273262 0.434015 -0.489335 -0.095985 -0.124046 -0.114673 -0.066709 -0.160902 -0.236676 -0.342033 0.012112 0.025718 0.366174 -0.001843 0.005248 -0.172863 0.014813 0.276663 0.404074 0.205619 0.154004 0.544244 0.066719 0.089949 -0.137175 -0.124810 -0.266834 0.024095 0.143421 -0.205167 -0.111843 0.373592 -0.177402 -0.005221 -0.107869 0.544904 -0.127455 -0.088984 -0.052433 0.037963 -0.070543 0.227316 0.187903 -0.429291 -0.205725 -0.224821 -0.022785 0.005749 0.225631 0.173362 0.211627 0.229056 0.282281 0.104315 -0.076808 0.079162 0.015537 0.278456 -0.047614 -0.100545 -0.060757 -0.254410 -0.208995 0.246633 0.490200 -0.180448 -0.553281 -0.273750 0.052985 -0.131998 0.126315 0.132937 0.103147 0.090726 0.559657 -0.402029 0.122867 -0.060420 0.024497 -0.322660 0.147390 0.093703 -0.062786 -0.357969 0.053535 0.151014 -0.054577 0.086452 -0.186683 
149 -0.019050 0.220348 0.079686 0.025960 -0.072559 -0.406696 -0.146324 -0.455319 -0.108431 -0.276363 -0.258063 -0.240470 0.033714 0.692673 0.232670 -0.033642 0.057659 0.267402 0.536815 0.223659 -0.076276 0.306451 -0.039634 0.032602 -0.104591 0.560116 -0.251478 -0.073686 -0.202906 0.121203 0.213827 0.376362 0.028025 -0.076653 0.007865 -0.078825 0.185643 0.233187 -0.176537 -0.006761 0.097096 0.089655 0.239008 -0.037905 -0.155085 0.086929 -0.350033 -0.111353 0.469496 0.095759 -0.099644 -0.097629 0.126922 0.260904 0.370099 -0.254691 -0.176192 0.057188 0.088757 -0.106067 0.005558 0.268065 0.026640 -0.158921 0.127807 0.300672 -0.035738 -0.366433 -0.317372 0.069288 0.203104 -0.259634 -0.279086 -0.230171 0.313637 -0.312870 0.021208 -0.132258 0.389665 -0.521365 0.356917 -0.357623 -0.176421 -0.059721 0.072964 0.300455 0.009490 0.279812 0.155539 0.195193 -0.115736 -0.144451 0.303663 -0.043218 0.081625 -0.110990 -0.152293 -0.271185 -0.286740 0.033816 -0.057279 -0.096174 0.081218 -0.197767 -0.208003 -0.001236 -0.180874 -0.089118 0.132705 -0.081970 0.238676 -0.190919 -0.043245 0.134662 0.269145 0.029423 0.392464 0.171057 0.136636 0.494742 -0.308828 -0.251874 0.557459 0.108401 -0.374233 -0.356554 -0.224161 -0.120255 
104 0.521961 -0.142039 -0.180378 0.193271 -0.193505 -0.048260 -0.172634 -0.377870 0.110103 0.257678 -0.081564 -0.260801 -0.227391 0.252232 -0.045751 0.120795 0.120311 -0.148268 -0.000619 -0.226006 0.445871 0.006232 -0.119750 0.046096 0.112948 0.134654 0.118456 -0.141483 0.315101 -0.405826 -0.246321 0.143802 0.224423 0.017445 -0.144722 0.328370 0.143788 0.140970 -0.541588 0.322210 -0.180281 -0.155075 0.427831 -0.330941 -0.255965 0.170765 0.351522 0.087059 -0.256030 0.091068 -0.136778 0.453460 0.132889 0.244281 -0.272769 -0.077777 -0.383868 -0.211081 -0.207785 -0.015972 -0.064684 -0.123326 -0.107378 0.187034 0.120830 -0.147468 -0.139126 -0.131251 -0.454188 0.043796 0.261330 -0.186687 -0.263931 -0.047125 0.396637 -0.370283 0.067205 0.282846 0.612457 -0.360495 0.443539 -0.201189 -0.372113 -0.318327 0.205848 -0.393775 0.065337 0.026215 0.279321 -0.182131 -0.278336 -0.239618 -0.306377 0.330727 0.178211 0.202514 -0.287849 0.036657 -0.498822 0.262213 0.197850 -0.017414 -0.212906 0.018792 -0.470256 -0.020876 0.459289 -0.195793 0.080453 -0.094898 0.325912 0.186876 0.115269 0.373531 0.031624 -0.265872 0.196642 -0.072821 0.265340 0.078899 -0.098568 -0.289648 -0.207324 -0.133423 0.472403 0.168429 0.006572 0.100718 
314 -0.116886 -0.112146 0.345556 0.079836 0.318374 0.072250 -0.624053 -0.257460 -0.060134 0.630271 0.140868 -0.284132 -0.092000 0.665805 0.089025 0.386301 0.245990 -0.123463 0.137426 0.298679 0.038511 0.169240 -0.098050 -0.089629 -0.030437 -0.011306 0.367775 0.425277 0.125352 -0.021887 -0.193017 0.106494 0.402561 0.038314 0.012544 0.098080 0.076516 -0.092732 -0.003765 0.091034 0.205420 -0.132942 -0.243117 -0.119791 0.123834 0.160067 -0.042413 0.142500 -0.259821 0.086507 0.298243 0.078868 0.061201 0.183434 -0.022636 -0.150249 0.170675 0.054732 -0.471659 -0.313445 -0.201713 0.222026 -0.439660 0.494525 0.283246 0.521370 0.126582 -0.093873 -0.235164 0.272470 0.369940 0.022701 0.158145 0.348562 -0.169059 -0.198704 -0.061010 0.298185 0.280006 0.166762 0.008109 0.140685 -0.664199 0.419186 -0.065115 -0.021431 -0.345071 -0.044882 0.064087 0.068802 0.221310 -0.095539 0.094618 -0.080316 -0.171427 0.146614 -0.017907 0.015209 -0.127806 0.131680 -0.020827 0.126187 0.405925 0.237285 -0.168506 0.070028 -0.209274 0.273382 0.197843 -0.240008 -0.377158 -0.132533 0.140735 0.381130 0.227807 -0.107792 0.033272 -0.012828 0.034131 0.240813 -0.162130 0.184016 0.043881 0.350378 -0.185677 0.255665 0.022913 0.106340 
89 0.312005 -0.009392 0.032265 0.131933 0.097774 0.197670 -0.595045 -0.391474 -0.043323 0.118830 -0.387172 -0.531271 0.160652 0.394734 -0.091589 0.231440 -0.195983 -0.168896 -0.026664 -0.148002 -0.091269 -0.215429 -0.266952 -0.038484 -0.190840 -0.081964 0.096841 -0.085519 -0.058629 -0.245551 0.074605 -0.042965 -0.101292 -0.180912 -0.043193 -0.092727 0.026057 -0.376416 -0.187298 0.022425 0.028798 0.121767 -0.042015 -0.067534 -0.375020 0.246275 -0.396016 -0.272378 -0.083004 -0.334735 0.226739 -0.322977 0.050050 -0.072143 0.008662 -0.418305 -0.194756 0.248139 -0.069033 -0.079574 0.410464 0.120709 0.149113 0.299907 0.056152 -0.203576 0.168334 -0.384510 -0.060027 0.124653 0.089032 -0.390886 0.151408 -0.059736 0.392548 -0.044258 -0.136739 0.032501 -0.303408 0.043877 0.140895 0.104909 -0.352490 -0.206044 -0.345563 0.056426 0.315474 0.107267 0.127493 0.113305 0.237084 0.210027 -0.089309 -0.294673 0.468785 0.058575 -0.085791 -0.300247 -0.025801 -0.331294 -0.104515 0.094556 -0.034918 0.296217 0.155302 -0.048147 -0.374826 -0.163207 -0.232584 -0.825790 0.331415 0.008751 -0.124190 0.224725 -0.265988 -0.236448 -0.094938 -0.041450 -0.194165 0.438775 0.167510 0.226208 -0.343096 0.083327 0.343167 -0.035551 -0.151478 -0.177583 
189 0.083409 -0.157903 0.026580 0.140153 0.084069 0.119372 -0.181569 -0.229367 -0.129735 -0.014637 -0.308204 0.059818 -0.335459 -0.072871 0.461469 -0.212615 0.301239 -0.022159 0.096514 0.044945 0.085972 -0.232610 -0.259110 0.103942 -0.197677 -0.123748 -0.221498 -0.197767 0.018973 -0.283717 -0.244331 0.079780 0.106476 -0.293256 -0.155164 -0.178813 -0.439444 0.215054 -0.009170 -0.040508 -0.195520 -0.300253 -0.035774 -0.297685 0.162287 0.319885 0.009053 0.020101 0.157797 -0.310182 -0.433269 0.006995 0.297998 0.539972 -0.052435 0.556122 0.436034 0.192379 -0.095892 -0.084300 0.071052 0.100186 -0.137046 0.431579 0.310347 -0.085768 0.039981 -0.055540 -0.026551 0.143909 0.223745 -0.122352 0.529928 0.141318 0.488776 -0.036636 0.224554 -0.093586 0.286111 0.102996 0.196670 -0.153366 -0.330769 0.051373 -0.200184 -0.261177 0.194195 0.154196 0.267109 0.465352 0.176479 -0.121115 0.103468 -0.214920 0.365856 0.489967 -0.167860 -0.008728 -0.218391 -0.196101 0.149814 0.096676 0.149835 -0.053696 0.014385 -0.101851 -0.048196 0.036130 -0.103339 0.201334 0.274329 -0.128265 -0.244858 0.064083 0.051584 0.249826 -0.016168 -0.120659 -0.417724 0.498068 0.120814 0.060173 0.112805 0.154284 -0.134028 -0.129907 -0.165954 -0.243379 
382 -0.416421 -0.097291 -0.129002 0.416008 -0.087125 -0.435276 0.180445 -0.291583 -0.015467 0.440489 -0.313164 -0.407281 0.375528 -0.147336 0.220904 -0.156016 -0.141183 0.439374 0.007304 0.383236 0.009269 -0.003365 0.229659 -0.109569 -0.031037 -0.248504 -0.608130 -0.107881 0.240973 0.027961 0.165163 -0.155833 -0.401144 -0.581915 0.012355 0.265088 0.325471 -0.203884 -0.071974 0.107998 -0.349120 -0.056535 0.384983 0.103822 0.104194 0.042091 0.075698 0.175211 -0.111390 -0.096229 0.174320 0.146392 -0.202584 -0.058855 0.188027 0.194766 -0.220298 -0.123481 -0.207578 0.262155 -0.321305 0.025446 0.244024 0.386260 -0.451104 0.178885 0.133688 -0.288101 -0.258404 0.345570 0.146092 -0.409054 -0.062678 0.162017 -0.123338 -0.177574 0.165645 0.335771 -0.046472 -0.108122 -0.009612 -0.116605 -0.981758 -0.035094 0.675790 -0.164413 0.299500 0.106790 0.119569 -0.110567 0.024796 0.485087 0.049124 -0.254625 0.009626 -0.024893 -0.281184 -0.141558 -0.253987 0.445116 0.073647 -0.023182 0.063555 -0.160010 -0.043117 -0.092535 0.146070 -0.145900 -0.159148 0.370091 -0.047419 0.268099 0.298376 0.229930 0.055014 0.354034 0.364048 0.451810 -0.014153 0.229937 0.096090 -0.156737 -0.370445 -0.219336 0.347266 -0.317175 -0.034248 -0.093788 
380 0.374211 -0.074244 0.141993 -0.180830 0.005014 -0.320183 -0.054836 -0.207001 -0.000895 0.420336 -0.098492 -0.098932 -0.004144 0.132186 0.374348 -0.211047 0.065079 0.027445 0.210651 -0.033202 0.121652 0.490759 -0.153775 -0.066513 -0.158716 0.118677 -0.123752 0.384067 0.140648 -0.357103 -0.152024 -0.079528 0.289450 -0.008911 0.068185 0.096744 0.279080 0.000063 -0.301358 0.133242 0.396335 -0.118505 0.210330 -0.032427 0.081403 0.307368 0.185084 -0.168953 -0.136394 0.222089 0.114125 -0.227575 0.076469 0.158718 0.023017 0.354692 0.072900 0.054929 -0.032790 -0.097198 0.083860 0.295058 0.310249 0.293766 0.195075 0.112269 -0.251537 -0.240290 0.013110 0.278711 -0.000908 -0.007224 0.192711 0.141277 0.376951 0.035223 -0.092000 0.149866 0.047236 0.198938 -0.131732 0.103025 -0.855384 -0.052345 -0.010430 0.323708 0.191790 -0.107954 0.364061 0.376194 0.005134 -0.188632 0.108422 0.095083 -0.211550 -0.340234 0.019710 -0.313592 0.155491 0.259508 -0.330337 -0.172358 0.403566 -0.035308 -0.035523 0.221759 -0.015046 -0.151895 0.115207 -0.257824 -0.161105 -0.014429 0.244685 0.201367 0.189210 0.027400 0.095019 0.060150 -0.009479 0.209170 -0.313890 0.193653 0.059032 0.088057 -0.051844 -0.001136 -0.300846 0.033893 
319 0.154172 0.158111 -0.018471 0.246430 0.143095 0.197912 -0.140831 -0.240184 0.232141 -0.437032 -0.120465 -0.063238 -0.007005 -0.271860 0.194419 0.313639 0.166600 -0.342682 0.226687 -0.151946 0.104877 0.198573 -0.067738 0.278037 0.000749 -0.057597 -0.258916 0.106363 -0.255619 -0.269345 -0.129864 0.250255 -0.006787 0.159666 -0.206488 -0.058500 0.195632 0.121757 -0.165953 0.184672 0.629343 0.002932 -0.320867 -0.012279 0.081218 0.011041 0.228402 -0.158674 -0.207705 0.131814 -0.281181 -0.023162 -0.139295 -0.240374 0.339745 -0.325855 -0.292874 0.169189 -0.213578 -0.022215 -0.072462 0.190550 -0.171976 0.492950 0.471160 0.665164 -0.056652 -0.000232 0.041193 -0.182448 0.001096 -0.570438 -0.045437 -0.026505 0.065567 -0.164891 0.100415 -0.017910 0.112178 -0.128826 -0.090198 0.054774 -0.771584 -0.094719 0.009005 -0.335326 -0.066594 0.206981 -0.118790 -0.165356 0.320562 0.206121 0.350405 0.530970 0.302471 0.156573 -0.241599 0.329858 -0.160556 -0.045893 0.644312 0.327099 -0.119255 0.179784 0.058156 0.221773 -0.006157 -0.032003 0.182335 -0.160224 0.203897 0.013288 0.166466 0.258982 -0.040179 0.245865 -0.091759 0.291018 -0.322591 0.209466 -0.224625 -0.021942 0.174498 0.229218 0.282837 0.149917 -0.245479 0.055195 
316 -0.187404 0.012596 -0.278282 0.128529 0.019550 -0.167509 -0.451278 -0.361379 -0.158604 0.384734 -0.114044 -0.190830 0.121049 0.009039 0.216809 0.211494 0.156446 -0.058189 -0.054363 -0.011093 -0.042210 -0.031655 -0.048352 -0.072798 0.007355 -0.250086 -0.012573 -0.246308 -0.095790 0.379760 0.082892 0.031012 0.369250 -0.144576 -0.179816 0.093896 0.082078 0.160632 -0.121467 -0.083106 0.218546 -0.185880 -0.325177 -0.042881 0.030731 0.164713 0.241701 0.334188 0.116224 -0.276147 0.018302 -0.048783 0.128127 0.119053 -0.053368 0.002377 0.088547 -0.062584 -0.095180 0.239632 0.039734 0.187113 0.186339 0.086370 0.047148 0.311492 -0.233972 -0.136218 0.268240 0.075332 0.082882 -0.149633 0.082486 0.125984 0.365429 -0.275733 -0.147449 -0.198182 0.251933 -0.167231 0.314001 0.024743 -0.635532 -0.267076 -0.146537 -0.122337 -0.293018 0.036386 0.125617 0.274370 -0.304378 -0.123343 -0.142419 0.106865 0.043524 -0.083871 -0.117162 -0.283043 -0.014352 0.125974 -0.122296 0.042347 0.454609 0.073627 -0.128819 -0.041793 -0.027310 -0.232935 -0.220941 -0.117333 0.045757 0.106419 0.222501 0.081132 0.252190 -0.420113 -0.168055 0.033823 0.022854 0.258850 -0.103861 0.183221 0.295307 -0.033005 -0.225789 -0.015112 0.074863 0.122407 
571 0.193132 0.184741 -0.198672 -0.133993 -0.335301 -0.239678 -0.181470 -0.639316 -0.078329 -0.436973 -0.110253 -0.561029 0.084796 -0.026240 -0.256169 0.150092 0.277569 0.243704 0.339000 0.816527 -0.235880 0.154121 -0.095714 0.043611 0.413104 -0.254087 0.042454 -0.364286 0.150168 -0.243699 0.071455 -0.158979 -0.052074 -0.468044 -0.031102 -0.590623 -0.033410 0.447283 -0.269436 -0.077777 0.472144 0.264641 -0.054544 0.210512 0.064635 0.023677 0.102720 0.294349 -0.005123 0.143062 0.502777 -0.259900 0.121744 0.127601 -0.125391 -0.117459 -0.698926 0.341071 0.110656 -0.270396 -0.062897 -0.291346 -0.149577 0.295891 0.027878 0.020017 -0.071169 -0.070335 0.354869 0.080047 -0.261268 -0.302092 0.138427 -0.018447 -0.239532 -0.548926 0.279304 -0.146912 0.171811 0.068969 0.546552 -0.318620 -0.818972 0.315664 -0.033032 0.402984 0.125771 -0.485129 -0.058685 0.172874 0.382159 -0.124594 -0.274893 -0.147527 0.065075 -0.048270 -0.028999 -0.237649 -0.377991 -0.136882 0.018864 0.038700 0.164398 -0.380785 -0.242801 -0.004018 -0.076219 0.157880 0.458034 0.223384 0.208973 0.535621 -0.448744 0.181431 0.162725 -0.117387 -0.178500 0.066447 -0.489159 -0.437176 0.297850 0.320325 0.007850 0.125568 0.349477 0.352881 -0.215435 -0.056705 
117 0.218097 -0.237084 -0.112007 -0.101872 0.124066 -0.280201 0.041690 -0.539471 0.028169 0.180296 -0.068960 -0.175419 -0.031819 -0.043829 0.272187 0.141636 -0.227912 -0.015111 0.402210 0.101812 0.148257 -0.129912 0.026643 0.024569 -0.188470 -0.150728 -0.418418 -0.299150 -0.221123 -0.071539 0.148043 -0.208617 0.261189 -0.080419 0.202524 0.244151 -0.374914 -0.158729 -0.340519 0.262661 -0.128691 -0.155178 -0.080751 -0.191724 -0.116405 0.156411 -0.358808 0.076055 -0.162057 0.103063 0.054246 0.162609 -0.093853 -0.078326 -0.050870 -0.223772 0.281381 0.167874 -0.279307 0.052989 0.768102 0.075648 -0.049223 0.065369 -0.481338 -0.023559 -0.273799 -0.187634 0.454816 0.241592 -0.034680 -0.091908 -0.026940 0.325226 0.408453 0.141933 0.264523 0.346183 0.078910 0.121267 0.308922 -0.101179 -0.519556 0.033185 -0.033532 -0.108934 -0.289351 0.420496 0.145923 -0.144684 -0.177341 -0.075935 0.095005 -0.200270 0.173875 0.025107 0.043156 -0.339753 -0.091970 0.085469 -0.108401 -0.197261 -0.052607 0.171275 -0.174075 0.148876 -0.408146 -0.242425 -0.233123 -0.030822 0.037787 0.212583 -0.313931 0.405376 0.199158 -0.078819 -0.073830 0.212786 -0.181594 0.274534 -0.288977 -0.224617 -0.219496 -0.216409 0.015737 -0.018126 -0.063503 -0.062505 
156 0.445686 0.327134 0.022989 0.139516 0.109068 -0.218990 -0.082023 -0.191625 -0.260009 -0.115763 -0.302903 -0.229910 -0.116249 -0.007936 0.004576 0.340845 -0.253871 -0.180134 -0.073896 -0.163833 -0.134454 0.050492 0.015144 -0.127123 -0.078161 0.150502 0.021337 -0.142553 -0.408656 0.135831 -0.088494 -0.065984 0.311504 -0.245930 -0.273086 0.295074 0.388988 -0.006830 -0.187942 -0.140292 0.194294 0.112622 0.058869 -0.204860 -0.204963 0.267946 -0.140582 -0.447374 -0.076530 -0.349522 0.271544 -0.214354 -0.026283 0.053149 -0.163195 -0.330068 -0.259161 0.102650 0.162241 -0.399154 0.319830 -0.051297 -0.149730 -0.058757 0.017350 0.194046 -0.087878 -0.198820 -0.400372 0.161796 0.245370 -0.078093 0.297260 -0.011669 0.402420 -0.262632 0.373289 -0.208603 0.265231 0.178125 -0.005559 -0.206592 -0.669370 0.051227 -0.087141 0.055631 -0.105412 0.197517 0.340102 0.239443 0.059232 0.324290 0.146660 -0.133707 -0.039019 0.282418 0.071449 0.169818 -0.115582 0.023167 -0.003970 0.128819 0.173942 0.049064 0.150763 0.028464 -0.141668 -0.067402 0.120842 -0.351149 0.424996 0.123333 0.061928 -0.069877 0.079130 -0.065250 0.308597 0.008873 -0.137781 0.144220 -0.203086 -0.196581 -0.066923 0.047465 -0.029962 -0.201601 -0.060703 -0.036356 
224 -0.197741 0.027680 -0.268522 -0.133513 0.129360 -0.307998 -0.410295 0.037202 -0.442194 0.035803 -0.326921 0.102468 0.024500 -0.038377 0.309938 -0.280376 -0.033722 -0.145011 0.268281 0.142922 0.029352 -0.009438 -0.196405 -0.116921 -0.565556 -0.028241 -0.163527 -0.049049 -0.165670 0.213005 -0.527257 0.446008 0.190419 -0.178367 -0.311035 -0.128092 -0.031313 -0.034298 -0.063653 -0.179537 0.191920 -0.196915 -0.167313 -0.078336 -0.175249 0.105374 0.030192 -0.083043 0.043307 -0.495322 -0.393953 -0.071564 0.020347 -0.032087 0.113983 0.128145 -0.099243 -0.044414 0.065911 -0.105215 -0.064353 -0.292257 0.186750 0.149118 0.261830 -0.067002 0.343952 -0.181213 -0.172530 0.017681 0.272973 -0.004264 -0.066679 0.024635 0.365135 0.043628 0.565273 0.330047 0.170271 -0.416102 0.661205 0.007275 -0.871909 -0.138219 -0.089149 0.177507 -0.012365 0.044033 -0.422810 0.144015 -0.181842 -0.073346 0.034120 0.096207 -0.065306 0.380237 0.345027 -0.182987 -0.002830 0.034677 -0.281427 0.369723 0.183628 0.100760 -0.030210 0.000445 0.292739 -0.027264 -0.107055 -0.102129 0.079772 -0.349134 0.072288 -0.269213 -0.165970 0.086029 0.088251 -0.372012 -0.469438 0.078661 -0.031260 0.149956 0.066583 0.217932 -0.185990 -0.064187 -0.201599 0.231066 
207 0.059149 0.389575 0.011623 0.170953 -0.217538 0.125372 -0.410235 -0.266732 0.112943 0.133263 -0.285346 -0.566344 0.313765 0.152515 -0.196467 -0.148787 -0.011734 0.540602 -0.275310 0.231355 -0.122539 0.328068 0.069574 0.103883 -0.160689 0.183996 0.142480 -0.267724 -0.296682 -0.435740 0.292608 0.119120 -0.245534 -0.220100 0.284324 -0.051656 0.066986 0.180846 -0.003449 -0.323599 0.014323 -0.490014 -0.122544 -0.157943 0.321290 0.218041 -0.050927 0.153808 0.123870 0.092844 -0.257015 -0.222294 0.481813 0.075829 0.158113 0.043273 0.322102 0.000334 -0.053142 0.262994 -0.006584 0.050636 -0.209774 0.178965 0.235915 -0.327775 -0.017155 -0.048820 0.009771 -0.287976 0.212990 -0.156696 -0.240939 0.107755 0.213799 0.196625 -0.306351 -0.029936 0.340423 0.030316 0.372622 0.142108 -0.614121 -0.306912 -0.349237 0.185078 -0.244133 0.113730 0.105522 -0.066750 -0.155241 -0.067557 -0.048104 0.003116 -0.022785 -0.075798 0.161715 -0.018425 -0.053532 0.279387 -0.116510 0.164661 -0.374320 0.233552 -0.088220 0.310972 -0.256355 -0.028513 -0.506164 0.498567 0.050107 -0.300615 0.065658 0.048008 0.225062 0.128268 -0.134119 0.025269 -0.283993 0.193117 0.158314 0.349010 -0.110846 -0.195772 0.041890 0.159473 -0.249397 -0.449776 
175 0.264907 -0.342971 0.255557 -0.157560 -0.186073 -0.277967 -0.091067 -0.079973 -0.206234 0.500154 -0.198668 -0.183623 0.213898 0.361479 0.264237 0.510055 0.256260 0.183213 0.096535 -0.221832 0.211248 -0.093269 0.375959 0.034961 -0.355972 -0.333520 0.083339 -0.374081 0.388203 0.372552 -0.163078 0.326405 -0.705645 -0.310424 -0.250461 0.338245 0.102907 0.031641 -0.056681 0.033742 -0.055326 -0.127598 0.162769 -0.267681 -0.206277 0.214032 -0.037672 -0.080308 -0.277103 0.186866 -0.342027 -0.215144 -0.064823 0.171196 0.246967 -0.113215 -0.074309 0.338936 -0.286250 -0.220269 0.342586 -0.132845 -0.339439 0.024613 -0.107089 0.008365 0.307640 0.194082 0.062499 0.125777 -0.017324 -0.047946 0.306754 -0.112217 0.189299 0.024401 -0.240867 -0.222156 0.282513 0.046022 0.159922 0.014350 -0.587049 0.026802 0.060872 0.229588 -0.036194 0.082953 -0.044438 0.367411 -0.075063 -0.068513 0.001823 -0.190450 0.040949 0.025183 0.247811 0.218869 0.057136 -0.274951 -0.069429 0.346368 0.098330 0.465380 0.134879 -0.037416 -0.032795 -0.243435 0.251541 0.084496 0.174226 -0.078442 0.123843 -0.009258 0.063577 -0.130195 -0.234067 -0.001919 -0.273751 0.434415 0.019998 0.010416 -0.209381 -0.236295 0.361307 0.033146 -0.325319 -0.032211 
75 0.214390 0.020656 0.140904 0.228250 0.165673 -0.174812 -0.047282 -0.117210 0.149482 0.073691 -0.241132 -0.208976 -0.067670 0.201280 0.050602 0.152429 -0.166803 -0.211468 0.316841 -0.130789 -0.019223 0.431003 -0.075016 0.327308 -0.107394 0.065120 -0.018571 -0.256726 0.316995 -0.420203 0.349124 0.600530 0.002718 -0.071644 0.037116 0.125474 0.063489 0.177548 -0.212287 -0.127439 0.226087 -0.301453 0.031482 0.277204 -0.189358 -0.054476 -0.177097 0.010772 0.186108 -0.165219 0.033511 -0.292883 0.005497 0.243424 0.087401 0.079797 -0.290446 0.385968 0.225879 -0.011288 0.369491 0.003468 0.134837 -0.215436 0.183367 0.046770 0.024500 -0.278564 -0.165060 0.338125 0.519158 -0.245837 -0.232783 -0.084155 0.729856 -0.111837 -0.209254 0.141241 -0.128556 -0.136486 0.236982 0.035136 -0.267345 0.022906 0.360293 -0.006662 -0.580894 -0.181014 0.114412 0.004322 -0.166668 -0.204329 0.255285 0.014054 -0.047857 -0.110103 0.214762 0.016494 -0.520479 -0.035535 0.054944 0.309578 0.011886 0.225888 -0.357385 -0.298542 0.189271 -0.201122 -0.383473 0.073479 -0.057772 -0.056502 -0.192925 -0.003886 0.171225 0.191995 0.300528 0.217221 -0.333190 0.319010 -0.085925 0.057920 -0.141225 0.132983 -0.031538 -0.358670 -0.162899 -0.396742 
64 0.189194 0.103934 0.166566 0.260434 -0.080100 -0.253483 -0.143453 -0.178095 0.176417 0.289897 -0.018534 0.056860 0.050846 0.472607 0.167247 0.278830 0.009893 -0.011954 0.575297 0.411127 0.128441 -0.181423 0.193633 -0.079574 -0.242162 -0.125937 0.226123 -0.381944 -0.049990 -0.177331 0.043307 -0.177805 0.118783 -0.036861 0.488608 -0.095115 -0.189221 -0.014005 -0.063602 0.190235 0.250454 -0.011658 0.281031 -0.359267 -0.006329 -0.074735 0.332504 -0.277453 0.015883 0.146418 -0.162093 -0.070430 -0.516169 0.347478 -0.042151 -0.138391 0.067544 -0.060277 -0.218453 0.366321 0.279909 0.201608 -0.248973 0.002032 0.057025 -0.228800 0.112729 0.236631 -0.218972 0.235813 -0.013787 -0.025057 0.208137 0.275099 0.382332 0.249174 0.092981 0.274530 0.137125 -0.044828 0.020937 -0.375586 -0.590182 -0.014548 -0.312108 -0.008146 0.534928 0.020917 -0.201241 0.180350 -0.142483 -0.074230 -0.201117 -0.183276 0.334249 0.400838 0.086065 0.055472 -0.012625 -0.253279 -0.049598 0.339514 0.114507 -0.005671 -0.263591 0.113993 -0.041416 -0.372601 -0.202707 -0.578062 0.095240 -0.321521 0.052950 0.152209 0.223551 -0.201639 0.200540 -0.236264 -0.024176 0.524714 0.187592 -0.143034 0.255228 0.089520 -0.034204 -0.031035 -0.182607 -0.432773 
327 -0.019385 -0.426896 -0.259901 0.131891 -0.103371 -0.087863 -0.190679 -0.352350 -0.361961 -0.305727 0.049767 -0.124279 -0.094266 0.034755 -0.101465 0.095343 0.153494 0.075004 0.184172 0.232356 -0.013431 0.401269 0.107192 0.045887 -0.237980 -0.250613 0.140444 0.007683 0.221181 -0.030941 -0.374706 -0.321208 0.275445 0.247751 -0.123501 0.289595 0.349935 0.016541 -0.173350 0.197303 -0.116289 -0.041721 0.217996 -0.179236 0.243953 0.022166 0.235342 -0.017098 -0.127327 -0.274848 0.516369 0.068132 -0.189214 -0.183050 0.407803 -0.077665 0.333118 -0.186033 -0.297529 -0.296980 -0.014795 0.378472 0.456863 -0.023514 0.129452 0.159833 -0.131849 -0.177741 0.265377 -0.056064 0.100878 -0.235708 -0.119742 -0.203546 0.250834 -0.553706 0.214292 0.066397 0.190368 -0.361937 -0.057469 -0.027452 -0.796222 0.032150 0.067799 0.260744 -0.206312 0.407793 0.113746 0.092094 -0.142810 -0.170377 0.026268 0.421591 0.156394 -0.290421 -0.082663 0.075474 -0.143392 0.023930 0.098892 0.652724 0.081751 0.137503 0.006804 -0.069183 0.111883 -0.153412 0.052016 -0.202672 0.047915 -0.002744 -0.139586 0.355544 -0.054456 0.167306 -0.061799 -0.044956 -0.192572 0.039717 -0.079048 0.130230 0.095344 -0.021813 0.139645 -0.220784 0.014070 0.173963 
259 -0.429891 0.105609 -0.058417 -0.224387 0.350151 -0.454839 -0.257219 -0.178196 -0.103750 0.273927 -0.194905 -0.562949 -0.155511 0.148717 0.326609 0.153598 -0.087128 -0.075469 0.205626 -0.121849 0.044892 -0.381010 -0.063703 -0.090683 -0.431497 -0.098412 0.124738 -0.251388 0.280010 -0.175961 0.007237 0.033796 0.260275 -0.265858 0.170581 0.121476 0.184052 0.051796 -0.045442 0.017991 -0.253280 0.018752 -0.321717 -0.169555 0.158443 0.249157 -0.040330 -0.104296 0.109963 -0.054127 -0.044826 0.197143 -0.035271 -0.530403 -0.165187 -0.359040 0.221628 0.099175 -0.020167 0.059611 -0.101734 0.053858 -0.090606 0.132147 0.270380 -0.352710 -0.237057 0.219776 -0.039637 -0.088657 0.212075 -0.117318 -0.143922 -0.163226 0.206938 0.099020 0.251403 -0.222972 -0.106851 0.275186 0.237054 0.087096 -0.769002 -0.205626 -0.344864 -0.034014 -0.070204 -0.184643 -0.001066 0.306921 0.049430 0.077716 0.223295 -0.111056 0.585201 -0.004919 0.268134 -0.117424 -0.038021 0.070385 0.030864 -0.033930 0.130467 0.183616 -0.127211 -0.123219 -0.033820 0.061304 0.013867 0.053920 0.136569 -0.153246 -0.203671 0.309757 0.129652 0.590471 0.302181 -0.163945 -0.296551 0.243695 -0.089996 -0.178916 0.042580 0.070402 0.272926 0.009401 -0.242725 -0.115863 
74 -0.091496 -0.047655 -0.308627 -0.223026 0.049389 -0.072029 -0.328472 -0.353766 -0.193476 0.383373 -0.215127 -0.102801 -0.151482 0.174289 0.225348 -0.181038 0.124490 0.350397 0.121502 0.017370 0.127396 -0.121387 0.165566 0.060311 -0.284803 0.143606 -0.183590 -0.482345 0.163928 -0.324631 0.159669 0.097062 0.064544 0.083754 0.114256 0.222544 0.065268 0.452236 0.013564 0.244983 0.032309 -0.256899 -0.593774 -0.031843 -0.274884 0.035592 0.052172 -0.252504 0.118775 -0.663992 -0.104359 -0.061429 0.030053 0.261820 -0.050643 0.209174 0.095926 0.335518 -0.160559 -0.190115 0.073872 0.047856 -0.078238 0.057296 0.093161 -0.001336 0.002110 -0.357109 -0.072610 -0.128345 -0.023308 -0.310928 0.370177 -0.140998 0.136316 -0.184018 0.204978 -0.318418 0.140408 0.188652 -0.022131 0.031196 -0.540528 -0.156702 0.131215 0.429329 -0.011070 -0.057901 -0.039677 -0.014811 -0.018627 -0.071251 0.743231 -0.222086 0.589767 -0.030847 0.012299 -0.103522 0.272721 0.023106 0.253294 0.013783 -0.173543 0.287557 -0.042304 0.144300 -0.201864 0.048873 -0.008839 -0.054371 0.108048 0.109284 -0.080084 0.127515 -0.071748 0.004135 -0.305063 -0.219271 -0.198388 0.298427 0.109180 -0.159949 -0.364563 -0.146505 0.181891 0.222341 -0.256054 0.114755 
473 0.350375 0.061853 0.212358 -0.178941 -0.083252 -0.081950 0.099410 -0.457110 0.031329 -0.195387 -0.133986 -0.469320 -0.133490 0.121990 -0.002148 0.039425 -0.318531 0.214122 0.279344 -0.209652 -0.173605 0.790310 0.104007 -0.221987 -0.525918 -0.293802 -0.541772 -0.226058 0.205933 -0.306721 -0.043269 0.172362 0.095177 0.001531 -0.158884 0.247658 0.062092 0.066797 -0.329506 0.040429 -0.134665 -0.198264 0.009659 0.015164 -0.279880 0.296841 0.141222 0.441985 -0.086652 0.079680 -0.076241 0.257860 0.148343 -0.066732 -0.099256 0.108098 0.016429 0.019752 -0.251628 0.113218 0.202503 -0.065133 0.085476 0.463979 -0.112904 0.031795 -0.072682 -0.203543 0.430764 0.199999 0.067043 -0.352289 0.162989 0.091649 0.110803 -0.252739 -0.161275 -0.010171 -0.116983 0.303193 -0.185879 -0.346110 -0.684606 0.307308 0.087217 0.459856 0.239889 -0.448556 0.026650 0.526125 0.325701 -0.225952 -0.379420 -0.045762 -0.006266 0.053342 -0.278776 -0.048186 0.135813 0.272921 0.023438 0.410045 0.489250 -0.197948 -0.317255 0.162726 -0.296565 0.005766 -0.519991 0.123671 0.307941 -0.369474 0.406922 0.179376 -0.424349 0.212920 -0.083168 0.097132 -0.066573 -0.151388 0.245063 -0.254133 -0.145787 -0.147424 0.153696 -0.423569 0.251653 0.159201 
136 0.349962 -0.302886 0.166749 0.077021 -0.115831 -0.133030 -0.356194 -0.445542 0.280309 0.097814 -0.018659 0.040165 0.049938 0.500561 0.404711 -0.029680 0.029658 -0.381471 0.321589 -0.085831 -0.022391 -0.068112 0.064003 -0.374402 -0.462989 0.277222 -0.219825 -0.048705 0.028485 -0.110941 -0.167259 -0.302155 0.016295 0.122351 -0.049362 0.125528 -0.355570 0.143406 -0.180748 0.116425 0.473323 -0.237823 0.244174 -0.124891 -0.464229 0.143299 -0.209725 -0.313157 0.222713 -0.241387 0.144558 -0.131089 0.322342 -0.225177 -0.080043 0.041446 -0.162178 0.179490 0.512300 -0.342537 0.391431 -0.074624 -0.025013 -0.020636 0.126123 0.157886 0.084620 -0.563374 -0.009670 -0.484279 -0.030325 -0.289547 -0.021969 0.216191 0.171363 -0.199993 0.209625 0.157002 -0.105264 0.041859 0.026559 -0.315609 -0.522866 -0.183950 -0.076263 -0.002166 0.285293 0.297045 0.215524 -0.041016 -0.061549 -0.230297 0.111429 -0.313328 -0.287531 0.439697 -0.178730 -0.123204 -0.437023 -0.157275 0.105014 0.167512 0.291962 0.638594 0.110078 0.420374 -0.139281 0.096921 -0.174771 -0.134802 -0.010468 0.151475 -0.126250 0.090514 0.070628 0.098433 0.209150 -0.398974 -0.182477 0.196331 0.113924 0.154791 -0.646674 0.014901 0.166923 -0.149603 -0.338007 -0.126955 
105 0.177585 -0.114322 0.174415 -0.294617 -0.143101 -0.471004 0.104295 -0.080859 -0.197241 -0.235260 -0.118380 -0.049719 0.026301 0.372317 -0.167095 -0.383021 -0.271833 -0.321217 0.417815 0.050424 0.054159 0.412079 0.062887 0.068561 -0.644721 0.082777 -0.097785 -0.056527 0.068574 -0.125494 0.099995 -0.056749 0.174951 -0.460981 -0.218003 -0.002614 -0.169007 -0.085803 0.076431 -0.063032 0.202678 0.261347 0.048980 0.015831 -0.082341 -0.049131 -0.017388 0.146375 0.180655 -0.562816 0.093333 0.254826 0.429229 -0.066310 -0.234619 0.241330 -0.199518 0.266315 0.106469 -0.210491 -0.133614 -0.076895 -0.037345 0.293599 -0.015007 0.063020 0.087886 -0.227871 -0.142755 0.010171 0.601771 -0.237012 0.004304 0.154949 0.387603 0.002271 0.306990 -0.441845 0.205699 -0.158269 0.079551 -0.039241 -0.543491 -0.162497 -0.314397 -0.361735 0.146682 0.073907 0.064747 0.145481 -0.397967 -0.157207 -0.166903 -0.450426 0.017252 0.402309 -0.396134 0.009734 -0.051643 0.023349 0.164580 0.034917 -0.168795 0.016252 -0.098459 0.024218 -0.035351 -0.005064 -0.174634 -0.052045 -0.063059 0.081843 0.057958 0.283998 0.273020 0.368699 0.004846 -0.180008 -0.063593 0.531056 0.011329 0.356099 -0.073292 0.092812 -0.322129 -0.184271 -0.001877 -0.245288 
305 0.109889 0.046364 0.190198 -0.110060 0.342463 -0.196507 -0.261669 -0.421607 -0.226299 0.217839 -0.219054 -0.336814 0.027664 -0.090769 0.241313 0.479591 0.004237 0.064536 -0.052018 -0.077764 -0.003559 0.252625 -0.017580 -0.030685 -0.073602 -0.185685 -0.400115 0.166913 0.168628 -0.007095 -0.307939 -0.199613 -0.017082 0.211885 -0.218573 0.479799 0.158694 0.047105 0.238821 0.143048 0.095678 0.118324 0.188259 0.025404 0.054633 0.328273 0.192717 -0.167227 -0.066584 -0.241014 -0.163446 -0.043400 -0.021284 0.162636 0.186435 -0.046131 -0.232495 0.135142 -0.205869 0.029280 0.185305 0.547924 -0.276080 0.371765 0.113499 0.352630 -0.292411 0.104154 -0.230135 0.356591 -0.214005 -0.384256 -0.253556 -0.407148 0.172681 0.201670 0.081353 -0.081675 0.277336 0.179687 0.312624 0.008725 -0.782006 -0.047647 0.140579 0.207952 0.018938 -0.016258 -0.120320 -0.307051 0.134215 -0.292839 -0.071773 -0.391584 0.268383 -0.447086 -0.110515 -0.103803 -0.046878 0.216001 -0.229701 0.139411 0.153550 0.022776 -0.197598 -0.175719 0.102701 -0.335146 -0.135664 0.312584 -0.152754 -0.011791 0.214417 0.172253 0.059153 0.017732 -0.047670 0.100208 -0.277531 -0.027429 -0.187245 0.368976 0.088011 0.029605 0.028995 -0.134238 0.009503 0.052724 
145 0.200480 -0.230294 0.058364 -0.044742 0.101541 -0.291255 -0.479581 -0.593248 0.022797 0.272582 -0.429752 -0.001881 0.046296 0.031184 0.275525 0.509040 -0.016038 0.211631 0.395970 0.089763 0.285978 0.076367 -0.219982 0.271638 -0.268656 -0.015343 -0.272049 -0.380934 -0.016942 0.034771 -0.216078 -0.097434 0.369777 -0.102159 0.019802 -0.031257 0.176190 0.052696 0.005824 -0.011698 0.212193 -0.076982 0.076147 0.064787 0.155601 0.058214 -0.116783 0.028553 -0.222062 -0.030158 -0.170991 0.319964 0.075429 0.452156 -0.074200 -0.203551 -0.374254 0.065127 0.002103 -0.054645 0.096355 -0.157869 -0.253244 0.050920 0.058252 0.303621 0.302831 -0.176012 -0.587177 0.069721 0.027328 0.105978 0.153365 0.139281 0.335141 0.070360 0.257425 -0.133418 -0.094268 -0.120873 0.016793 -0.016987 -0.474779 0.020762 0.082619 -0.284278 0.099862 0.363633 0.256031 -0.048011 0.076415 0.207778 -0.189000 0.023054 0.391355 -0.140769 0.198552 0.020321 -0.057290 -0.028849 0.001390 -0.088305 -0.193132 -0.088465 0.002159 -0.071061 0.026149 0.079488 -0.022079 -0.504506 -0.070857 0.112943 -0.255914 -0.210414 -0.108329 0.319902 0.300029 -0.304164 -0.009637 0.223010 0.001060 0.050234 0.251869 0.011802 -0.044050 -0.128013 -0.154633 -0.410873 
550 0.095173 0.277673 -0.387954 -0.004518 -0.383905 0.210255 0.280217 -0.807514 -0.525247 -0.142675 0.005419 -0.487691 0.229255 0.267592 0.394706 -0.251358 -0.484150 0.408700 0.278842 -0.016396 -0.412406 -0.376335 -0.009995 -0.270600 -0.080373 0.011609 -0.191308 -0.184852 0.066185 -0.186601 0.313105 -0.192663 -0.135985 0.204317 0.167762 0.057887 0.014929 -0.154980 -0.658618 -0.046891 0.131246 0.187394 -0.130632 -0.090942 0.331450 -0.029913 0.010607 -0.043936 0.425958 0.115081 0.484822 0.634381 -0.097941 0.325080 -0.388970 -0.037676 0.068415 0.226912 0.141255 -0.670784 0.099494 0.137267 -0.358587 0.373185 0.303486 -0.475874 -0.116142 0.239103 -0.163614 -0.342789 0.225365 -0.203082 0.229177 -0.299726 -0.336106 -0.371195 -0.054924 0.484760 0.277529 -0.106114 0.110224 -0.042770 -0.778885 -0.195057 -0.054053 0.125609 -0.160860 0.036386 -0.245492 0.136737 0.314915 0.014610 0.188123 0.103061 0.189064 0.136603 -0.308342 -0.067014 0.017977 0.063486 0.418166 0.476477 -0.461108 0.127668 -0.533186 0.294152 0.200783 -0.176816 -0.431060 0.079165 0.072067 0.215445 -0.011606 0.099945 0.612662 -0.274187 -0.366552 0.071939 -0.111132 -0.378555 -0.005619 0.639734 0.087742 -0.141896 0.040620 -0.301188 -0.095584 -0.010432 
126 -0.034607 -0.052290 -0.005899 0.135792 -0.014394 -0.138862 -0.074501 -0.020876 0.022379 0.457430 -0.285229 -0.640908 0.170384 0.128972 0.129339 0.344071 0.109646 0.140166 0.190088 0.334353 0.152622 0.059853 0.189098 -0.000098 -0.430056 -0.091535 -0.026000 -0.010243 -0.031838 0.073849 -0.130638 -0.195421 0.236585 -0.392272 0.172228 0.186228 0.062661 -0.186169 -0.066824 -0.025512 -0.047536 -0.033577 0.032168 -0.182350 -0.037751 -0.260554 0.154187 -0.072418 -0.063507 -0.217497 0.162932 0.250462 -0.010396 -0.127064 -0.239543 -0.281058 -0.056372 0.332296 -0.414366 -0.065520 0.220727 -0.453756 0.218106 0.166263 0.327289 -0.178069 -0.001930 0.113750 0.053400 -0.070251 0.273498 -0.080264 -0.135493 -0.251031 0.337352 -0.142452 0.373877 -0.366801 -0.094230 -0.109808 0.463983 0.186589 -0.407198 -0.177921 -0.401092 0.238443 0.194920 -0.240944 0.374179 0.106224 0.230217 0.353277 -0.034136 -0.173821 0.235833 0.170240 0.383169 -0.123034 0.476373 0.235206 0.064956 0.033292 -0.164930 0.318688 -0.061605 -0.033662 -0.205996 0.014889 -0.070992 -0.096914 0.147803 -0.064142 0.057858 0.342783 -0.103402 0.028906 -0.059616 0.023917 -0.186939 0.221433 -0.123935 0.004504 -0.106656 -0.036367 -0.049314 0.117077 -0.257220 -0.109956 
128 0.386947 0.303925 0.155555 0.168248 0.180850 -0.425427 -0.087638 -0.033897 -0.084271 0.080898 -0.193096 0.060433 0.554829 0.063194 0.040406 0.108228 -0.120903 0.103526 -0.014300 -0.216770 -0.148031 0.450413 -0.043217 0.024535 -0.210081 -0.011138 0.069003 0.055695 -0.189669 0.384218 -0.335859 0.577369 -0.224783 0.053095 0.010668 -0.001755 0.173899 0.005083 -0.386540 0.338621 -0.174487 -0.551567 0.058039 0.052256 0.157400 -0.226781 0.428433 -0.213198 0.066751 0.147537 0.189306 -0.100033 0.580652 -0.232797 0.345813 0.274431 0.032917 0.434695 -0.018427 0.301019 0.319279 0.048805 -0.075996 0.019827 0.114602 -0.155973 0.247331 -0.025010 -0.095059 0.256679 0.592292 -0.757165 -0.135299 -0.112541 0.012775 -0.350786 0.154324 -0.109124 0.111249 -0.177491 -0.192790 -0.184928 -0.734192 0.028580 -0.136608 -0.162639 -0.152249 0.381600 0.020042 -0.009945 -0.178934 -0.211598 -0.171748 -0.176244 0.103458 0.078338 -0.163627 -0.064073 -0.128756 0.081569 0.232904 0.402524 -0.178160 -0.073869 -0.185427 0.165422 0.418542 0.141458 0.097933 -0.451393 0.011116 0.382487 -0.167896 0.149381 -0.055775 -0.038828 0.033626 0.077534 -0.460425 0.394369 -0.038171 -0.170210 0.411034 -0.024392 -0.117736 -0.016479 -0.402281 -0.308851 
141 -0.159896 -0.020155 -0.232819 0.325947 0.135605 -0.319682 -0.010208 -0.469757 -0.285629 0.202365 -0.428273 -0.673607 0.448454 -0.180460 -0.280034 0.221499 -0.034742 0.202881 0.001918 -0.038332 0.157116 -0.018772 -0.001868 0.143044 -0.214207 -0.130500 0.021116 -0.145050 -0.005735 -0.074618 0.159665 0.145458 0.349506 -0.141249 0.021278 0.189990 -0.206274 0.201659 -0.149307 0.360107 0.337618 -0.123326 -0.232344 -0.522979 0.112316 0.160228 -0.102269 -0.388275 -0.368282 -0.154457 -0.327909 0.086162 0.172248 -0.200624 0.286884 0.219379 -0.530545 -0.379043 0.017615 -0.148997 0.224193 0.204304 -0.399060 -0.504488 0.262570 -0.272103 0.170511 0.176044 0.059022 -0.254674 -0.023579 -0.309157 -0.007897 0.648378 0.016203 -0.217733 -0.109849 0.089782 0.312837 -0.058160 0.062927 0.085427 -0.882042 0.003950 -0.007939 -0.015168 -0.232005 0.037246 0.117011 0.006445 0.175512 0.335899 -0.372763 0.059384 0.064696 0.027973 0.034439 -0.071771 0.258948 0.294155 0.023205 0.148562 0.140871 -0.212564 0.183952 0.101643 0.142668 0.372055 -0.040818 -0.138895 -0.138209 0.094318 -0.249168 -0.282958 -0.066041 0.166642 0.054374 -0.203393 0.137032 0.086196 -0.400428 0.004979 -0.283585 -0.084189 0.075685 0.168110 0.130636 -0.282236 
510 -0.016202 -0.046204 0.138832 0.281675 -0.172264 -0.124200 -0.283416 -0.167834 -0.182401 0.049167 -0.382008 -0.159892 0.118452 -0.324779 0.074447 0.116542 -0.195319 0.015055 0.274124 0.268592 -0.038121 0.095392 -0.168522 0.084895 -0.104257 -0.277302 -0.287823 -0.114340 -0.274471 -0.208027 -0.151060 0.184434 -0.197856 -0.173932 -0.130694 0.342205 0.227955 0.091582 -0.073146 -0.430542 0.390432 -0.019463 -0.411296 0.389018 0.121566 -0.178741 -0.020253 0.156492 0.201972 -0.297026 0.239882 0.036265 -0.273839 0.218466 -0.251721 0.370046 -0.049207 -0.320479 -0.024892 -0.398603 0.145819 0.462393 0.236610 0.403825 -0.055076 -0.675995 0.552124 0.288131 -0.223590 0.095562 0.273736 -0.601617 -0.200742 0.170043 0.074905 -0.205871 -0.047543 -0.086713 0.344994 0.194622 -0.122438 -0.198665 -0.774999 0.117468 0.283114 0.323166 0.168578 0.169745 0.128721 -0.266252 -0.136639 -0.268921 0.071762 0.335377 -0.031059 0.332795 0.057717 0.035007 -0.309477 0.084892 -0.354152 -0.001712 0.101596 0.427888 -0.385332 0.098531 -0.177010 0.247924 -0.052801 0.057415 0.469205 -0.165835 -0.251295 0.071920 -0.019600 -0.236235 0.034231 -0.024989 0.237234 0.000198 -0.273907 -0.032217 -0.034975 -0.203824 -0.071416 -0.072624 -0.242441 0.146251 
200 0.192158 -0.077425 0.371294 0.157303 0.233540 0.085423 -0.251575 0.116528 -0.013256 -0.018194 -0.041096 -0.427482 -0.095566 0.285664 -0.521089 -0.338248 -0.048151 -0.015945 0.165260 0.218266 -0.330441 -0.063732 0.185584 0.255314 -0.208006 -0.029417 -0.099337 -0.435512 0.558894 0.468865 0.026867 0.556819 0.119930 0.153735 -0.038821 0.221006 0.029270 0.187309 0.171713 -0.110773 0.338156 0.453138 -0.215598 -0.176826 -0.034453 -0.269574 0.288000 -0.134465 0.128331 -0.187166 0.050007 -0.079226 0.149207 -0.034273 0.394897 -0.158380 0.180856 0.345819 -0.392688 0.184238 0.377650 -0.140343 -0.136938 0.160619 0.334965 0.119168 0.033265 -0.036934 -0.001879 0.037436 0.099720 -0.228677 -0.348341 0.065120 -0.062005 -0.434042 -0.081258 -0.268604 0.067855 0.059678 0.194521 0.094922 -0.591065 -0.063535 0.677257 -0.005230 -0.253618 0.093582 -0.010365 0.167620 -0.155528 0.021956 0.151560 -0.162444 0.317169 -0.013630 0.185414 0.088650 -0.242759 0.153222 0.068347 0.223552 0.234527 -0.062919 0.009538 -0.329566 0.362481 -0.317474 0.212177 -0.163940 0.402713 -0.096810 0.059326 -0.370285 0.273573 -0.153560 0.048046 0.340744 -0.090946 0.395528 0.094920 -0.130381 -0.339618 -0.121332 0.230092 0.061753 -0.067054 -0.022898 
90 0.380483 -0.081805 0.390140 -0.017361 0.222784 -0.343657 -0.281037 -0.724094 -0.013982 -0.069384 -0.039575 -0.208148 -0.486659 -0.126428 0.121217 0.041361 -0.195365 -0.056443 0.262715 0.041529 0.272969 0.192715 -0.058961 0.309270 0.039152 -0.013750 -0.114285 -0.130370 0.088713 0.048595 -0.008298 0.164377 -0.034659 -0.096275 -0.229289 -0.262874 -0.164997 -0.219218 -0.282794 -0.090995 0.338967 0.143698 -0.024268 0.180311 -0.289284 -0.076366 0.166557 0.062857 0.440789 -0.094392 -0.069442 0.346190 0.271457 0.141094 0.397561 -0.045815 0.003996 0.137171 0.121318 0.020178 -0.207443 0.074857 0.066255 0.013862 0.123994 -0.006844 0.200206 -0.456783 -0.425131 0.373972 0.035222 -0.378410 0.085834 -0.088072 0.294120 0.026873 0.172874 -0.369901 0.353504 -0.368008 0.263267 0.354950 -0.571537 -0.082726 -0.125455 -0.046617 0.038197 0.006567 -0.036526 0.098319 -0.228848 -0.336162 0.057143 -0.025259 -0.093101 0.138488 0.218603 -0.321485 0.077123 0.438609 0.307246 0.104208 -0.290826 -0.171430 -0.023694 -0.501019 -0.000651 -0.349947 0.154466 -0.383499 0.115993 -0.181344 0.090005 -0.137194 0.214769 -0.101035 0.358854 -0.043492 -0.154368 0.118781 0.177317 -0.263660 -0.190414 0.130012 -0.104349 0.119813 0.096660 0.050881 
191 0.136102 0.138052 0.164170 -0.239747 -0.145225 -0.141313 -0.198656 -0.321319 -0.048349 0.473980 0.200568 0.002610 -0.274155 -0.029709 0.082194 -0.381006 0.339001 0.227295 0.263430 0.089869 -0.083209 -0.228727 -0.132386 -0.186019 0.408555 -0.349577 0.154152 0.010898 0.165937 -0.096593 0.573492 0.175168 0.102509 0.114772 0.180639 0.237916 0.085448 0.039781 -0.487919 0.019185 0.173098 -0.152538 0.252613 0.027234 0.525274 0.213203 -0.221462 0.260832 -0.158464 -0.288511 -0.612644 0.053795 -0.214310 0.249285 -0.125287 -0.144448 -0.066996 0.012044 0.146781 0.059076 -0.033698 -0.015684 -0.305056 0.095351 0.132161 -0.058240 -0.001336 -0.638914 0.230026 0.310876 0.073626 -0.351929 -0.186687 -0.101648 -0.102378 0.068280 -0.044103 -0.312431 0.616349 -0.301666 0.054005 -0.064954 -0.949576 -0.185776 -0.001609 0.328960 0.163641 0.215155 -0.077187 0.428716 0.277989 -0.139220 0.067471 -0.261702 -0.025341 0.075077 0.344939 0.281521 -0.153062 0.248136 -0.047993 0.160430 -0.115446 -0.439306 0.284292 0.093217 0.033787 -0.157596 0.148846 -0.217892 0.357103 -0.121048 -0.260064 -0.260955 -0.113160 0.396271 -0.015107 -0.176238 -0.089886 0.002270 -0.488156 -0.024746 -0.281388 -0.109571 0.492211 0.246024 -0.057445 -0.237593 
372 0.101693 0.110688 -0.092155 -0.130859 0.223157 -0.041830 -0.329113 -0.035776 -0.094385 0.026664 -0.096527 -0.426956 -0.288842 -0.013915 0.243384 -0.046929 -0.032632 0.043024 -0.031207 0.141888 0.286594 0.023224 0.003454 0.315651 -0.045772 0.230573 -0.066760 0.211632 -0.170812 -0.057547 0.089146 -0.208055 -0.093231 0.139514 -0.044426 0.172002 -0.112891 0.044295 0.009148 -0.040637 0.052330 0.031289 -0.177259 -0.278665 0.064693 0.237045 0.284856 -0.147998 -0.121775 0.115390 0.212416 0.155382 -0.052286 -0.017831 -0.271525 -0.101635 -0.147736 0.362652 -0.146772 0.180566 0.078232 0.177831 0.349241 0.333556 0.190318 0.205320 0.253484 -0.233823 0.207422 0.111941 -0.077326 -0.098285 0.145511 -0.236386 0.316141 0.202580 0.269661 -0.346468 0.412180 0.042227 0.224521 0.017614 -0.783201 -0.040688 0.335882 -0.044146 -0.073776 0.091690 -0.016793 -0.082657 -0.047458 -0.110205 -0.058856 -0.235064 0.291497 -0.089101 0.032686 0.237382 -0.421977 0.072655 0.014607 0.027309 0.004600 0.111747 -0.120594 0.079954 0.088706 -0.222112 -0.345108 0.065431 0.152018 0.009139 -0.009401 0.148179 -0.107308 -0.262390 0.168372 0.090033 -0.169283 0.286756 0.134807 -0.022017 -0.021848 0.267684 0.102969 -0.034015 -0.194336 -0.148941 
286 0.456115 -0.169137 0.030379 0.106431 -0.181157 0.292344 0.107784 -0.491231 -0.346238 0.375912 0.558204 -0.464913 0.176717 0.187161 -0.168641 0.338312 0.029208 -0.041009 0.162778 0.437553 -0.225043 0.148034 0.002897 -0.035353 -0.040858 -0.078084 0.067412 -0.250487 -0.277827 -0.114943 -0.492821 0.295662 -0.143921 -0.305969 -0.316858 0.014036 -0.080966 0.302296 0.290793 0.102468 0.401275 -0.050087 -0.158187 -0.279607 0.092428 -0.131354 0.053125 -0.096025 -0.001486 0.010724 0.207462 -0.142363 -0.464264 -0.137734 0.047407 0.232769 0.032803 0.040820 0.124702 0.234274 -0.290930 -0.306546 0.006595 0.326182 0.046984 -0.310863 -0.345316 -0.269450 0.305811 -0.121954 0.476583 -0.167615 0.179439 -0.084737 -0.240363 0.102771 -0.047742 -0.034713 0.149096 -0.219022 -0.041102 -0.351370 -1.137771 0.107529 0.341888 0.158063 -0.092188 -0.357456 -0.214435 0.210027 0.081606 -0.176420 0.109255 0.242474 0.224061 -0.072855 0.399096 -0.178343 0.002196 -0.284642 0.071450 0.048956 -0.129541 0.227557 -0.290094 -0.090309 0.275676 -0.231127 0.113101 0.245931 0.080892 -0.316111 -0.568496 -0.247091 0.331138 0.038133 -0.365213 -0.045951 -0.321921 -0.498255 0.110910 0.120087 0.257076 0.087625 0.415525 0.053966 -0.165932 0.289446 
308 0.076306 0.192157 0.178440 -0.120169 0.223227 0.105743 -0.154696 0.009405 -0.037219 -0.022152 -0.157042 -0.460712 -0.104648 -0.019781 0.055530 -0.386166 -0.021549 0.006516 0.342154 0.217803 0.097304 0.174877 -0.101720 0.052923 -0.008351 0.304111 0.040862 -0.117937 -0.009132 -0.035890 0.261385 -0.016734 0.013722 0.052861 -0.060020 0.395996 0.097913 -0.132005 -0.288171 0.062297 0.102513 -0.198397 0.245383 -0.255262 0.164505 -0.117693 0.064687 -0.125320 -0.318420 -0.160405 0.029393 0.239088 -0.216690 0.397522 0.260132 0.081044 -0.000161 0.091258 0.066744 -0.130812 -0.028026 -0.177167 -0.036933 0.338917 -0.092922 0.279804 0.330964 0.236368 -0.223540 0.408484 0.043816 -0.024414 -0.110714 0.121071 0.225858 -0.188005 0.114645 -0.335745 0.124319 0.483492 0.051690 -0.149055 -0.657136 -0.051259 0.128863 -0.070052 0.237121 -0.179832 -0.035096 -0.184943 -0.088738 -0.000108 0.074152 -0.111782 0.100596 -0.049495 -0.084151 -0.165988 0.437647 -0.322454 -0.100608 0.303297 0.265195 0.124574 -0.004462 -0.088520 0.021608 -0.133940 -0.027155 -0.442686 0.132702 -0.012234 0.124804 0.190163 -0.192417 -0.180397 -0.002683 0.258832 -0.196776 0.376299 -0.291017 0.049832 -0.229639 -0.116372 -0.108097 -0.591492 -0.204319 -0.145965 
353 0.015022 -0.397692 -0.013355 0.278466 0.457474 -0.284723 -0.046555 -0.291337 -0.981447 0.256479 -0.026875 -0.355099 0.565321 0.026515 -0.303368 0.213436 0.049236 0.019304 0.235367 0.075702 0.140583 0.341857 0.044624 0.324580 0.097986 -0.108853 -0.618121 -0.077365 0.501538 -0.125582 0.135099 -0.121131 0.165775 -0.176561 -0.234403 -0.022304 0.228010 0.058200 0.015207 0.175406 0.218553 -0.294877 0.168901 0.122438 -0.380977 0.182948 -0.268047 0.476669 -0.171390 -0.148096 0.074510 0.028796 -0.151723 -0.088079 -0.375599 -0.259712 0.362470 -0.284929 0.161775 -0.102462 -0.065731 -0.184982 -0.130390 0.384347 0.097858 0.127885 0.278551 -0.270391 0.037355 -0.044229 0.499029 0.472900 -0.344015 0.461225 -0.074358 -0.520746 0.172738 0.157371 0.074879 0.144303 -0.020426 -0.036514 -0.721030 -0.328771 0.165433 0.033005 0.031788 0.165087 -0.145147 0.385840 0.049285 -0.205751 0.147699 0.163640 0.035077 0.281509 -0.069175 0.145377 0.255925 -0.140311 -0.142524 0.176713 0.051079 -0.026421 -0.073077 0.097644 -0.236067 -0.230570 0.002868 -0.146056 0.064469 -0.165943 0.240892 0.406842 0.060166 -0.276473 -0.030376 0.012208 -0.080952 -0.145090 -0.325220 0.054436 -0.136060 0.063057 0.372907 -0.395596 -0.018707 0.159531 
565 0.392531 -0.052619 0.017730 -0.051799 0.104355 -0.149201 0.412023 -0.369154 -0.129173 0.338350 0.057459 -0.078658 0.226549 -0.071904 0.142911 0.444589 -0.008204 0.052426 0.171245 0.362325 -0.262264 0.041089 0.425182 -0.037201 0.005345 -0.041888 -0.079343 -0.098599 0.042470 -0.357326 0.506939 -0.252012 -0.124537 -0.453231 -0.003271 -0.169988 0.336189 -0.386520 -0.214104 -0.083285 0.332989 0.486874 -0.118301 0.086439 -0.136264 -0.034809 -0.122627 0.035133 0.390836 -0.294397 0.100736 0.236295 -0.113225 -0.530989 -0.293529 0.220852 -0.369351 -0.035629 -0.178110 0.344165 -0.205481 -0.334991 -0.431113 0.707669 0.395505 0.082278 0.374433 -0.027074 -0.064823 0.294308 0.225716 0.139810 0.193445 0.409318 0.024967 -0.151772 0.230929 0.084249 0.369500 -0.413178 0.387292 -0.528176 -0.769346 0.008710 -0.075676 0.177553 -0.238577 0.021703 0.020090 -0.082938 0.010481 -0.088244 0.143833 0.532751 -0.267334 -0.227644 0.387063 -0.318837 -0.268973 0.024924 0.239872 0.064884 0.600410 0.219777 -0.097251 -0.148273 0.282855 0.049773 0.429387 0.031927 -0.425175 -0.207747 0.149525 0.096760 0.091613 0.351586 0.037916 -0.375573 0.044031 -0.147077 -0.191717 -0.531760 -0.487458 -0.153148 0.109015 -0.070041 -0.082408 -0.484444 
328 -0.091815 0.396459 -0.324953 -0.203813 0.308801 0.040399 -0.337696 -0.332885 0.224343 0.200775 -0.193678 -0.070212 0.204170 0.050200 0.021257 0.009919 -0.015803 -0.031266 0.244057 0.151243 -0.302683 0.085274 0.013378 0.153048 0.221818 -0.079586 -0.144205 0.036264 0.086815 -0.020855 0.154162 -0.095855 0.228292 0.052116 -0.036583 0.361033 -0.140123 -0.125729 -0.207154 -0.120413 0.173409 0.046356 -0.071643 -0.023018 -0.291751 0.226414 0.059748 -0.152008 -0.033811 0.287540 0.170331 -0.200055 -0.253959 0.001198 0.133471 0.383243 -0.369189 0.260481 -0.049274 0.267604 0.069258 -0.050417 0.312329 0.077594 -0.011802 0.080847 0.050508 -0.151387 -0.178121 0.065142 0.142609 -0.146314 0.001726 -0.376012 0.430724 -0.192144 0.080933 -0.019907 0.336799 0.127110 0.284499 0.023712 -0.585318 -0.098752 -0.006235 -0.083908 0.195510 0.220964 0.255750 0.326089 0.058691 -0.462180 -0.136803 -0.116604 0.107930 -0.121830 -0.117719 0.115474 -0.002964 0.134427 0.067846 -0.052613 0.222161 0.195239 -0.112254 0.140932 -0.173830 -0.065969 -0.163564 -0.045000 0.023597 0.280910 -0.202776 0.114078 0.111773 -0.130931 0.222513 0.080081 -0.227580 0.480198 0.010291 0.045398 -0.104250 0.147884 0.189578 -0.211048 0.046131 -0.191472 
114 0.084310 0.489345 -0.012996 0.504336 0.176735 -0.101351 0.267759 -0.649022 -0.191408 0.091840 0.068021 0.011614 0.275247 -0.151836 0.064216 -0.299980 0.039999 0.003176 0.214598 -0.099990 -0.216496 0.035364 -0.452165 0.251549 -0.133001 0.071058 -0.088531 0.079292 0.193261 0.078772 0.314481 0.295881 -0.206204 0.114556 -0.223304 0.114956 0.010037 -0.135038 0.049496 0.335270 0.473452 0.246491 -0.283579 -0.132869 -0.036337 -0.002755 -0.045924 0.320505 -0.224306 -0.347585 -0.181228 0.252665 0.200875 -0.239159 0.390419 -0.236276 0.025753 0.038036 -0.362955 -0.190889 -0.224064 -0.054097 0.042782 0.370498 -0.157750 0.073231 -0.030053 -0.055753 0.171371 -0.127096 0.131474 0.064416 0.171186 0.077718 0.218722 -0.401739 0.391938 -0.096617 0.478342 0.231196 0.264849 0.025362 -0.487994 0.433865 -0.158622 -0.014632 -0.037193 0.321527 0.501918 -0.169330 0.159292 -0.020837 0.053648 0.052732 0.233730 0.413613 0.218688 0.279924 -0.044801 -0.077615 -0.134439 0.090588 -0.376662 0.226552 -0.115575 -0.071857 -0.199743 -0.056174 0.229290 -0.082811 0.042560 -0.193303 -0.014760 0.116192 0.142104 0.062262 0.320061 -0.099209 -0.078723 0.152921 0.371543 0.041311 -0.326049 -0.136252 0.112302 -0.136866 -0.412232 0.389010 
211 0.235241 -0.248675 0.067635 0.007944 0.029569 -0.503925 0.187432 -0.283755 0.007711 -0.024144 0.037737 -0.300499 -0.120394 -0.032033 0.441277 0.262871 -0.029424 0.080043 0.245895 0.506859 -0.102248 0.195021 -0.219634 -0.197972 -0.091062 0.231957 0.024805 -0.015757 -0.093435 -0.122720 0.064209 0.153386 0.128133 -0.073161 -0.037888 0.234017 -0.351674 -0.288503 0.382071 -0.274748 -0.280694 0.063253 -0.138958 0.066483 -0.189744 0.400766 0.019672 0.283180 0.004056 -0.196965 -0.152423 0.105190 -0.301331 -0.294975 -0.267571 -0.259974 0.094133 -0.006697 -0.045747 -0.113152 0.211142 0.252875 -0.123093 0.369364 -0.401942 -0.081389 -0.346729 0.003564 -0.141703 -0.345119 0.223046 0.092689 0.102514 -0.251729 0.287545 -0.421505 0.362259 0.123473 0.102815 0.361806 0.089256 -0.208997 -0.819557 -0.471454 0.042841 0.159664 0.032570 0.291299 0.234839 0.675674 -0.137169 0.098143 0.034581 -0.313599 0.487839 0.309568 0.420327 0.019663 0.112422 -0.117080 0.352025 0.262300 0.091243 -0.017491 0.088585 0.116529 0.490227 -0.065413 0.164020 -0.348431 0.354960 -0.076964 -0.083832 0.031192 0.193433 -0.220599 0.584096 0.003840 -0.205528 0.229846 0.086599 0.404556 0.100896 0.175659 -0.514497 0.141060 0.247967 0.301786 
158 0.555044 -0.235559 -0.019693 -0.162306 -0.005080 -0.203402 -0.135110 -0.558498 0.326326 0.285119 -0.197255 -0.211652 0.187043 0.146971 -0.056316 0.266616 -0.163374 0.097846 -0.017386 -0.361532 0.251911 0.032587 0.466994 -0.090433 -0.480260 -0.236081 -0.021949 0.001521 -0.257723 0.068543 0.045140 0.156457 0.256546 -0.126555 -0.277485 0.290581 0.246493 -0.217837 -0.092605 -0.036454 -0.227058 0.212424 -0.348068 0.128437 0.299722 0.336728 -0.275316 -0.009038 0.102339 -0.396431 0.263030 -0.393643 -0.275741 0.005724 -0.258235 -0.267730 0.192796 0.087082 0.214046 0.262072 0.141656 0.203765 -0.265213 0.010549 0.485418 -0.376579 -0.416251 -0.171774 -0.254636 0.347917 0.108749 -0.040612 0.222527 0.233408 -0.059185 -0.385656 0.207769 0.013804 0.154643 0.045979 0.077504 0.482577 -0.702216 0.153348 -0.206164 -0.094550 -0.049548 0.228376 0.493663 0.267236 0.000304 0.019851 -0.150008 0.176513 0.073329 0.342776 -0.066575 0.106483 0.011816 -0.058607 -0.027373 0.243636 0.072937 0.233244 -0.064238 0.115572 0.369374 -0.020760 -0.114035 0.044146 0.503851 0.289587 -0.094066 0.226795 0.080118 -0.029232 0.063497 -0.259412 -0.358546 0.407839 0.141699 -0.115229 -0.059695 -0.195323 -0.120750 -0.105560 -0.079626 -0.425553 
361 0.281982 -0.005375 0.027894 -0.187948 0.067539 -0.006399 -0.215043 -0.344054 -0.269707 0.451343 -0.543097 -0.166955 -0.163655 0.251857 0.303481 -0.053040 -0.020906 -0.300001 0.301432 0.009536 0.069574 0.145367 0.086956 -0.166277 -0.209980 0.251643 -0.197381 0.137826 -0.031884 0.190481 0.431768 0.134831 0.354744 0.106211 -0.226171 0.158976 0.121612 0.083027 0.115884 0.084461 0.159444 -0.017974 -0.286238 -0.088950 0.324034 0.114905 0.151637 0.071514 -0.072603 -0.149678 0.013901 -0.352881 0.359956 0.288709 -0.122942 0.063914 -0.099464 0.196663 -0.251940 0.076816 -0.164665 0.060829 -0.072501 0.443548 0.422460 -0.184188 0.100480 0.262892 -0.067607 0.130045 0.315852 -0.565345 0.075729 -0.157796 0.017810 0.144483 -0.252470 0.226413 0.033935 0.280784 -0.160857 0.053908 -0.619418 -0.045198 -0.208187 -0.129082 0.217429 0.138609 0.260195 0.394965 -0.205217 -0.133477 -0.128873 0.026876 0.120028 -0.295715 0.199022 -0.032180 0.079668 0.341330 -0.001494 -0.143022 0.421279 0.256459 -0.363845 0.124931 -0.123956 0.281924 -0.163639 -0.157794 -0.231564 0.174900 0.141834 -0.058295 -0.133943 -0.168703 -0.028421 0.074265 0.023436 0.553483 0.185704 -0.051089 -0.133211 0.184732 -0.217261 -0.318960 0.035351 0.244416 
108 0.254046 0.184667 -0.002338 -0.037824 0.020325 0.109725 -0.314469 -0.342809 -0.338170 0.253587 -0.307030 -0.387467 -0.004809 0.037212 0.006061 0.203627 0.096962 -0.135998 0.204824 0.067974 -0.007210 -0.041900 0.126798 -0.081786 -0.201937 0.011770 -0.253505 -0.222486 -0.183906 0.011692 0.065003 0.018963 -0.010947 -0.590339 0.291628 0.124284 0.185610 -0.330508 0.094670 -0.066411 0.225025 -0.408935 0.250841 0.146156 0.061785 -0.303845 -0.666684 -0.072722 -0.227594 0.327986 -0.407002 -0.114300 0.086576 -0.025743 0.135621 0.012995 -0.337416 -0.134843 -0.296058 0.176254 -0.190179 -0.275781 -0.937653 0.011143 -0.186963 -0.245979 0.111138 -0.325383 -0.233956 0.343228 0.280339 -0.018425 -0.012657 -0.229592 0.151165 0.017561 -0.286157 -0.202063 0.504701 -0.273685 0.510141 -0.200841 -0.650084 0.117537 -0.114808 -0.017097 -0.103148 0.211398 0.481333 -0.225339 -0.043953 -0.246538 -0.498010 0.096094 0.190452 -0.168614 -0.091083 0.164905 0.272353 0.309132 0.041117 0.045438 0.007911 -0.367565 -0.397722 0.055141 -0.284053 -0.215666 -0.407070 0.151501 0.373036 0.044179 -0.061052 0.182644 -0.108271 0.392747 -0.243384 -0.091745 0.180031 -0.183785 0.047484 0.337702 0.083280 -0.071138 0.089997 -0.073117 0.179475 0.055041 
358 0.357715 -0.043385 -0.216136 -0.143332 -0.015937 -0.196356 -0.410869 -0.336599 0.130630 -0.025443 -0.244166 -0.219875 0.038284 -0.015335 0.287369 0.077499 -0.227798 -0.143832 0.038269 0.055797 0.040118 0.034365 -0.044719 -0.028859 0.086230 0.084935 -0.195303 -0.221243 0.240009 0.026609 0.121690 0.159934 0.200249 -0.137411 -0.008142 0.055835 0.043632 0.154405 -0.174591 -0.151031 -0.007724 0.024533 -0.222084 -0.050270 0.109564 -0.276665 -0.113331 -0.196652 -0.135391 0.175592 -0.019752 0.224656 -0.021824 0.052701 -0.004198 0.056542 0.008087 -0.072049 -0.012003 0.045801 0.174701 0.134821 0.155772 0.115776 0.420402 0.330943 0.222389 -0.077678 -0.025254 -0.221960 0.123997 -0.110666 -0.055304 -0.121768 0.436232 -0.102385 0.130014 -0.306595 0.352583 0.066353 0.220489 -0.109843 -0.531392 0.032975 -0.024588 -0.209127 0.251320 0.138325 0.149796 0.163893 -0.023081 -0.098921 -0.163807 0.030877 0.062076 0.027859 -0.265375 -0.009629 0.082009 0.291893 0.008710 -0.089164 0.189914 0.068915 -0.188064 -0.137341 -0.164335 -0.341925 -0.318569 -0.301255 -0.203280 -0.051733 0.060560 0.140403 0.102839 -0.236200 0.158230 0.335501 -0.002645 0.135286 -0.135545 0.079239 0.057970 0.021361 -0.177132 0.012756 -0.342923 -0.187675 
